<?xml version="1.0"?>
<opencv_storage>
<opencv_ml_ann_mlp>
  <format>3</format>
  <layer_sizes>
    384 25 9</layer_sizes>
  <activation_function>SIGMOID_SYM</activation_function>
  <f_param1>1.</f_param1>
  <f_param2>1.</f_param2>
  <min_val>-9.4999999999999996e-01</min_val>
  <max_val>9.4999999999999996e-01</max_val>
  <min_val1>-9.7999999999999998e-01</min_val1>
  <max_val1>9.7999999999999998e-01</max_val1>
  <training_params>
    <train_method>BACKPROP</train_method>
    <dw_scale>1.0000000000000000e-03</dw_scale>
    <moment_scale>1.0000000000000001e-01</moment_scale>
    <term_criteria>
      <epsilon>1.0000000000000000e-04</epsilon>
      <iterations>10000</iterations></term_criteria></training_params>
  <input_scale>
    9.5288162323011703e-03 -1.9048809486609470e+00
    1.4434775165622166e-02 -3.3854893976408285e+00
    1.4974025954538646e-02 -3.5355339059327360e+00
    1.3529150788234022e-02 -3.1304951684997055e+00
    1.3956610505201370e-02 -3.2513733362117265e+00
    1.3956610505201370e-02 -3.2513733362117265e+00
    1.1235787476262934e-02 -2.4583486857786401e+00
    1.1038998391256903e-02 -2.3979157616563609e+00
    1.0095486239070974e-02 -2.0976176963403024e+00
    9.0942088391026132e-03 -1.7464249196572981e+00
    8.6412582588103939e-03 -1.5642277681457704e+00
    8.3999522967026560e-03 -1.4544361847068488e+00
    8.1798279240378399e-03 -1.3390681268239721e+00
    8.0007792633647410e-03 -1.2216004634526350e+00
    7.8816727843249168e-03 -1.1041639743225553e+00
    7.8527181254825339e-03 -1.0506646010483576e+00
    7.8431372549019607e-03 -1. 7.8527181254825322e-03
    -9.5177852094968840e-01 7.8647437345574899e-03
    -9.2847669088525919e-01 7.9164760173759553e-03
    -8.7227837598864699e-01 7.9629800947946024e-03
    -8.3979947481213446e-01 7.9811826505878595e-03
    -8.2915619758884984e-01 8.6412582588103939e-03
    -6.3929308785088002e-01 1. 0. 1.7120161767270582e-02
    -4.1231056256176650e+00 1. -255. 1. -255. 1. -255. 1. -255. 1. -255.
    1. -255. 1. -255. 2.5270643144405490e-02 -6.2849025449882543e+00
    2.0765237838160661e-02 -5.0990195135927845e+00
    2.0765237838160661e-02 -5.0990195135927845e+00
    2.5270643144405490e-02 -6.2849025449882543e+00
    2.9088119424428165e-02 -7.2801098892804932e+00
    3.5514020819114277e-02 -8.9442719099991503e+00
    2.9088119424428165e-02 -7.2801098892804932e+00
    2.5270643144405490e-02 -6.2849025449882543e+00
    2.9088119424428165e-02 -7.2801098892804932e+00
    2.9088119424428165e-02 -7.2801098892804932e+00
    2.5270643144405490e-02 -6.2849025449882543e+00
    1.3144328818978783e-02 -3.0207614933986422e+00
    9.3415504924860282e-03 -1.8380365552345195e+00
    8.5881928833933113e-03 -1.5411035007422442e+00
    7.9461443637676571e-03 -1.1757350641945108e+00
    2.5270643144405542e-02 -1.5911145683514602e-01
    1.8099620967118972e-02 -4.3874821936960622e+00 1. -255. 1. -255. 1.
    -255. 1. -255. 1. -255. 2.9088119424428165e-02
    -7.2801098892804932e+00 1.5587986388143247e-02
    -3.7050334313299738e+00 1.5587986388143247e-02
    -3.7050334313299738e+00 1.2187931786629644e-02
    -2.7434131641941355e+00 1.1447205408367106e-02
    -2.5226248955475659e+00 9.9691547915831819e-03
    -2.0556766408199763e+00 1.0522672835293128e-02
    -2.2360679774997898e+00 1.1038998391256903e-02
    -2.3979157616563609e+00 1.1038998391256903e-02
    -2.3979157616563609e+00 1.2795768442229728e-02
    -2.9205156676015074e+00 1.7120161767270582e-02
    -4.1231056256176650e+00 2.9088119424428165e-02
    -7.2801098892804932e+00 1. -255. 5.0068190514013379e-02
    -1.2688577540449502e+01 1.7120161767270582e-02
    -4.1231056256176650e+00 1.2795768442229728e-02
    -2.9205156676015074e+00 9.3415504924860282e-03
    -1.8380365552345195e+00 2.9088119424428259e-02
    -1.3736056394868901e-01 2.0765237838160661e-02
    -5.0990195135927845e+00 2.5270643144405490e-02
    -6.2849025449882543e+00 1.9286790587542062e-02
    -4.7056197405716054e+00 1.8099620967118972e-02
    -4.3874821936960622e+00 1.6294950297823053e-02
    -3.8987177379235898e+00 1.3529150788234022e-02
    -3.1304951684997055e+00 9.9691547915831819e-03
    -2.0556766408199763e+00 9.0196611144221697e-03
    -1.7179113807746669e+00 8.5881928833933113e-03
    -1.5411035007422442e+00 8.2813587834000783e-03
    -1.3947955210189575e+00 7.9461443637676571e-03
    -1.1757350641945108e+00 7.8527181254825339e-03
    -1.0506646010483576e+00 7.8920046264698458e-03
    -1.1180339887498947e+00 8.0217996185028527e-03
    -1.2374368670764586e+00 8.0007792633647410e-03
    -1.2216004634526350e+00 8.3189033080770299e-03
    -1.4142135623730951e+00 9.8498171585547876e-03
    -2.0155644370746368e+00 1.5587986388143247e-02
    -3.7050334313299738e+00 2.5270643144405490e-02
    -6.2849025449882543e+00 2.9088119424428165e-02
    -7.2801098892804932e+00 1.7120161767270582e-02
    -4.1231056256176650e+00 1.3144328818978783e-02
    -3.0207614933986422e+00 9.2549098601163293e-03
    -1.8064212949190022e+00 2.5270643144405542e-02
    -1.5911145683514602e-01 1.4974025954538646e-02
    -3.5355339059327360e+00 1.4974025954538646e-02
    -3.5355339059327360e+00 1.4434775165622166e-02
    -3.3854893976408285e+00 1.2478354962115539e-02
    -2.8284271247461885e+00 1.0855367886283549e-02
    -2.3409399821439250e+00 9.7369515502242938e-03
    -1.9771421064483217e+00 8.4436117711295319e-03
    -1.4752866122334656e+00 7.9629800947946024e-03
    -1.1907604493604891e+00 8.0937396371657151e-03
    -1.2867547182419938e+00 8.1494859609570012e-03
    -1.3212731405218248e+00 7.9629800947946024e-03
    -1.1907604493604891e+00 7.8816727843249168e-03
    -1.1041639743225553e+00 7.8527181254825339e-03
    -1.0506646010483576e+00 7.8527181254825322e-03
    -9.5177852094968840e-01 7.9036002007473859e-03
    -1.1321175472737228e+00 8.2118830693709774e-03
    -1.3572417850765921e+00 9.0196611144221697e-03
    -1.7179113807746669e+00 1.3144328818978783e-02
    -3.0207614933986422e+00 1.8099620967118972e-02
    -4.3874821936960622e+00 2.5270643144405490e-02
    -6.2849025449882543e+00 1.8099620967118972e-02
    -4.3874821936960622e+00 1.4974025954538646e-02
    -3.5355339059327360e+00 9.5288162323011703e-03
    -1.9048809486609470e+00 2.9088119424428259e-02
    -1.3736056394868901e-01 1.9286790587542062e-02
    -4.7056197405716054e+00 1.9286790587542062e-02
    -4.7056197405716054e+00 1.4434775165622166e-02
    -3.3854893976408285e+00 1.3956610505201370e-02
    -3.2513733362117265e+00 1.2478354962115539e-02
    -2.8284271247461885e+00 1.0855367886283549e-02
    -2.3409399821439250e+00 8.9486921088901758e-03
    -1.6903085094570331e+00 8.1798279240378399e-03
    -1.3390681268239721e+00 8.0442759853862084e-03
    -1.2535663410560176e+00 8.2457067968126213e-03
    -1.3758114488755873e+00 8.3999522967026560e-03
    -1.4544361847068488e+00 8.0217996185028527e-03
    -1.2374368670764586e+00 7.8527181254825339e-03
    -1.0506646010483576e+00 7.8725900715343900e-03
    -9.1701095462872806e-01 7.8647437345574899e-03
    -9.2847669088525919e-01 8.0442759853862084e-03
    -1.2535663410560176e+00 8.8811074729810355e-03
    -1.6635630016519105e+00 1.2795768442229728e-02
    -2.9205156676015074e+00 1.3144328818978783e-02
    -3.0207614933986422e+00 1.3956610505201370e-02
    -3.2513733362117265e+00 1.3956610505201370e-02
    -3.2513733362117265e+00 1.4974025954538646e-02
    -3.5355339059327360e+00 9.6300909940896934e-03
    -1.9402850002906642e+00 2.9088119424428259e-02
    -1.3736056394868901e-01 2.9088119424428165e-02
    -7.2801098892804932e+00 1. -255. 2.2674619384356141e-02
    -5.6035702904487534e+00 2.2674619384356141e-02
    -5.6035702904487534e+00 1.8099620967118972e-02
    -4.3874821936960622e+00 1.2187931786629644e-02
    -2.7434131641941355e+00 8.8167290027299748e-03
    -1.6376257758774377e+00 8.0442759853862084e-03
    -1.2535663410560176e+00 7.8816727843249168e-03
    -1.1041639743225553e+00 8.1208057642662753e-03
    -1.3038404810405297e+00 8.4894747431005415e-03
    -1.4966629547095771e+00 8.2457067968126213e-03
    -1.3758114488755873e+00 7.9036002007473859e-03
    -1.1321175472737228e+00 7.8581228187487792e-03
    -9.4006432239105764e-01 7.8725900715343900e-03
    -9.1701095462872806e-01 7.9461443637676571e-03
    -1.1757350641945108e+00 8.7553930298264783e-03
    -1.6124515496597096e+00 1.1038998391256903e-02
    -2.3979157616563609e+00 1.5587986388143247e-02
    -3.7050334313299738e+00 1.6294950297823053e-02
    -3.8987177379235898e+00 1.5587986388143247e-02
    -3.7050334313299738e+00 1.3956610505201370e-02
    -3.2513733362117265e+00 9.7369515502242938e-03
    -1.9771421064483217e+00 2.9088119424428259e-02
    -1.3736056394868901e-01 5.0068190514013379e-02
    -1.2688577540449502e+01 1. -255. 2.2674619384356141e-02
    -5.6035702904487534e+00 1.8099620967118972e-02
    -4.3874821936960622e+00 1.3956610505201370e-02
    -3.2513733362117265e+00 1.0095486239070974e-02
    -2.0976176963403024e+00 8.5881928833933113e-03
    -1.5411035007422442e+00 7.9036002007473859e-03
    -1.1321175472737228e+00 7.8527181254825322e-03
    -9.5177852094968840e-01 7.8485221764116597e-03
    -1.0377490433255416e+00 7.9036002007473877e-03
    -8.8330050391686077e-01 7.8647437345574899e-03
    -9.2847669088525919e-01 8.1798279240378399e-03
    -7.4678799380567684e-01 7.9164760173759553e-03
    -8.7227837598864699e-01 7.8527181254825339e-03
    -1.0506646010483576e+00 8.2457067968126213e-03
    -1.3758114488755873e+00 9.5288162323011703e-03
    -1.9048809486609470e+00 1.2187931786629644e-02
    -2.7434131641941355e+00 1.8099620967118972e-02
    -4.3874821936960622e+00 5.0068190514013379e-02
    -1.2688577540449502e+01 2.0765237838160661e-02
    -5.0990195135927845e+00 1.4974025954538646e-02
    -3.5355339059327360e+00 9.4327497145561563e-03
    -1.8708286933869711e+00 2.9088119424428259e-02
    -1.3736056394868901e-01 3.5514020819114277e-02
    -8.9442719099991503e+00 1. -255. 2.9088119424428165e-02
    -7.2801098892804932e+00 1.4974025954538646e-02
    -3.5355339059327360e+00 9.3415504924860282e-03
    -1.8380365552345195e+00 8.2118830693709774e-03
    -1.3572417850765921e+00 8.0442759853862084e-03
    -1.2535663410560176e+00 7.8920046264698458e-03
    -1.1180339887498947e+00 7.8485221764116597e-03
    -9.6362411165943151e-01 8.0442759853862084e-03
    -7.9772403521746571e-01 8.1798279240378399e-03
    -7.4678799380567684e-01 8.9486921088901758e-03
    -5.9160797830996170e-01 8.5881928833933113e-03
    -6.4888568452305018e-01 8.1494859609570029e-03
    -7.5684577952221055e-01 7.8920046264698458e-03
    -8.9442719099991586e-01 8.1208057642662753e-03
    -1.3038404810405297e+00 8.8811074729810355e-03
    -1.6635630016519105e+00 1.0371544122414800e-02
    -2.1876275473019366e+00 1.3529150788234022e-02
    -3.1304951684997055e+00 2.2674619384356141e-02
    -5.6035702904487534e+00 2.9088119424428165e-02
    -7.2801098892804932e+00 2.0765237838160661e-02
    -5.0990195135927845e+00 9.5288162323011703e-03
    -1.9048809486609470e+00 3.5514020819114304e-02
    -1.1180339887498948e-01 2.9088119424428165e-02
    -7.2801098892804932e+00 2.2674619384356141e-02
    -5.6035702904487534e+00 1.7120161767270582e-02
    -4.1231056256176650e+00 1.3144328818978783e-02
    -3.0207614933986422e+00 1.0095486239070974e-02
    -2.0976176963403024e+00 8.2118830693709774e-03
    -1.3572417850765921e+00 7.9461443637676571e-03
    -1.1757350641945108e+00 7.9164760173759535e-03
    -1.1464230084422213e+00 7.9461443637676571e-03
    -1.1757350641945108e+00 7.8485221764116597e-03
    -1.0377490433255416e+00 8.0937396371657151e-03
    -7.7714888923526360e-01 7.8920046264698458e-03
    -8.9442719099991586e-01 7.9306505605391108e-03
    -8.6135676921410897e-01 8.0442759853862084e-03
    -7.9772403521746571e-01 7.8816727843249168e-03
    -9.0566258568029834e-01 8.0682433623650435e-03
    -1.2700012700019050e+00 9.5288162323011703e-03
    -1.9048809486609470e+00 1.0683626728176727e-02
    -2.2870874995874622e+00 1.1674966159481746e-02
    -2.5911938781738653e+00 1.7120161767270582e-02
    -4.1231056256176650e+00 5.0068190514013379e-02
    -1.2688577540449502e+01 5.0068190514013379e-02
    -1.2688577540449502e+01 1.0855367886283549e-02
    -2.3409399821439250e+00 5.0068190514013448e-02
    -7.8811040623910061e-02 2.0765237838160661e-02
    -5.0990195135927845e+00 1.5587986388143247e-02
    -3.7050334313299738e+00 1.4974025954538646e-02
    -3.5355339059327360e+00 1.3956610505201370e-02
    -3.2513733362117265e+00 9.8498171585547876e-03
    -2.0155644370746368e+00 9.0942088391026132e-03
    -1.7464249196572981e+00 8.3189033080770299e-03
    -1.4142135623730951e+00 8.8811074729810355e-03
    -1.6635630016519105e+00 9.4327497145561563e-03
    -1.8708286933869711e+00 8.8811074729810355e-03
    -1.6635630016519105e+00 7.9164760173759535e-03
    -1.1464230084422213e+00 7.8485221764116597e-03
    -9.6362411165943151e-01 7.8437350322173287e-03
    -1.0124228365658292e+00 7.8816727843249168e-03
    -9.0566258568029834e-01 7.8920046264698458e-03
    -1.1180339887498947e+00 8.9486921088901758e-03
    -1.6903085094570331e+00 1.1235787476262934e-02
    -2.4583486857786401e+00 1.0683626728176727e-02
    -2.2870874995874622e+00 1.1038998391256903e-02
    -2.3979157616563609e+00 1.7120161767270582e-02
    -4.1231056256176650e+00 1. -255. 2.9088119424428165e-02
    -7.2801098892804932e+00 1.0855367886283549e-02
    -2.3409399821439250e+00 5.0068190514013448e-02
    -7.8811040623910061e-02 2.0765237838160661e-02
    -5.0990195135927845e+00 1.6294950297823053e-02
    -3.8987177379235898e+00 1.4434775165622166e-02
    -3.3854893976408285e+00 1.1038998391256903e-02
    -2.3979157616563609e+00 9.7369515502242938e-03
    -1.9771421064483217e+00 8.6412582588103939e-03
    -1.5642277681457704e+00 8.1208057642662753e-03
    -1.3038404810405297e+00 8.1208057642662753e-03
    -1.3038404810405297e+00 8.0217996185028527e-03
    -1.2374368670764586e+00 8.0217996185028527e-03
    -1.2374368670764586e+00 7.8816727843249168e-03
    -1.1041639743225553e+00 7.8647437345574917e-03
    -1.0770329614269010e+00 7.8437350322173287e-03
    -1.0124228365658292e+00 7.8485221764116597e-03
    -1.0377490433255416e+00 8.3189033080770299e-03
    -1.4142135623730951e+00 9.6300909940896934e-03
    -1.9402850002906642e+00 1.1674966159481746e-02
    -2.5911938781738653e+00 1.2795768442229728e-02
    -2.9205156676015074e+00 1.4434775165622166e-02
    -3.3854893976408285e+00 2.0765237838160661e-02
    -5.0990195135927845e+00 2.9088119424428165e-02
    -7.2801098892804932e+00 2.0765237838160661e-02
    -5.0990195135927845e+00 1.0855367886283549e-02
    -2.3409399821439250e+00 1. 0. 2.0765237838160661e-02
    -5.0990195135927845e+00 2.0765237838160661e-02
    -5.0990195135927845e+00 1.4434775165622166e-02
    -3.3854893976408285e+00 1.1038998391256903e-02
    -2.3979157616563609e+00 9.7369515502242938e-03
    -1.9771421064483217e+00 9.0196611144221697e-03
    -1.7179113807746669e+00 7.9629800947946024e-03
    -1.1907604493604891e+00 7.8485221764116597e-03
    -1.0377490433255416e+00 7.8527181254825339e-03
    -1.0506646010483576e+00 7.8455291845869989e-03
    -1.0250038592085422e+00 7.8725900715343900e-03
    -9.1701095462872806e-01 7.8581228187487792e-03
    -9.4006432239105764e-01 7.8437350322173287e-03
    -9.8772959664958948e-01 8.1494859609570012e-03
    -1.3212731405218248e+00 9.4327497145561563e-03
    -1.8708286933869711e+00 1.0095486239070974e-02
    -2.0976176963403024e+00 1.1674966159481746e-02
    -2.5911938781738653e+00 1.4434775165622166e-02
    -3.3854893976408285e+00 2.5270643144405490e-02
    -6.2849025449882543e+00 2.9088119424428165e-02
    -7.2801098892804932e+00 2.9088119424428165e-02
    -7.2801098892804932e+00 1.6294950297823053e-02
    -3.8987177379235898e+00 1.0683626728176727e-02
    -2.2870874995874622e+00 1. 0. 2.2674619384356141e-02
    -5.6035702904487534e+00 3.5514020819114277e-02
    -8.9442719099991503e+00 2.2674619384356141e-02
    -5.6035702904487534e+00 1.4974025954538646e-02
    -3.5355339059327360e+00 1.1447205408367106e-02
    -2.5226248955475659e+00 9.2549098601163293e-03
    -1.8064212949190022e+00 8.6969490066009549e-03
    -1.5879984667608409e+00 8.1208057642662753e-03
    -1.3038404810405297e+00 7.9164760173759535e-03
    -1.1464230084422213e+00 7.9461443637676571e-03
    -1.1757350641945108e+00 7.9811826505878595e-03
    -1.2060453783110543e+00 8.0682433623650435e-03
    -1.2700012700019050e+00 9.4327497145561563e-03
    -1.8708286933869711e+00 9.5288162323011703e-03
    -1.9048809486609470e+00 1.1038998391256903e-02
    -2.3979157616563609e+00 1.3144328818978783e-02
    -3.0207614933986422e+00 1.8099620967118972e-02
    -4.3874821936960622e+00 2.5270643144405490e-02
    -6.2849025449882543e+00 2.5270643144405490e-02
    -6.2849025449882543e+00 2.5270643144405490e-02
    -6.2849025449882543e+00 3.5514020819114277e-02
    -8.9442719099991503e+00 1.4434775165622166e-02
    -3.3854893976408285e+00 1.0522672835293128e-02
    -2.2360679774997898e+00 1. 0. 9.6300909940896934e-03
    -1.9402850002906642e+00 1.1038998391256903e-02
    -2.3979157616563609e+00 1.2187931786629644e-02
    -2.7434131641941355e+00 1.3956610505201370e-02
    -3.2513733362117265e+00 1.2478354962115539e-02
    -2.8284271247461885e+00 1.0095486239070974e-02
    -2.0976176963403024e+00 1.1235787476262934e-02
    -2.4583486857786401e+00 1.1038998391256903e-02
    -2.3979157616563609e+00 9.6300909940896934e-03
    -1.9402850002906642e+00 9.4327497145561563e-03
    -1.8708286933869711e+00 9.9691547915831819e-03
    -2.0556766408199763e+00 1.1038998391256903e-02
    -2.3979157616563609e+00 1.1921081691824495e-02
    -2.6645825188948455e+00 1.1235787476262934e-02
    -2.4583486857786401e+00 1.1921081691824495e-02
    -2.6645825188948455e+00 1.2187931786629644e-02
    -2.7434131641941355e+00 1.2795768442229728e-02
    -2.9205156676015074e+00 1.3144328818978783e-02
    -3.0207614933986422e+00 1.3144328818978783e-02
    -3.0207614933986422e+00 1.1921081691824495e-02
    -2.6645825188948455e+00 1.1447205408367106e-02
    -2.5226248955475659e+00 1.1038998391256903e-02
    -2.3979157616563609e+00 8.2813587834000783e-03
    -1.3947955210189575e+00 1. 0. 1.8099620967118965e-02
    -2.2792115291927587e-01 1.3529150788234022e-02
    -3.1943828249996997e-01 1.3144328818978784e-02
    -3.3104235544094718e-01 1.2478354962115544e-02
    -3.5355339059327373e-01 1.3956610505201370e-02
    -3.0756234261462279e-01 1.2187931786629649e-02
    -3.6450944139642377e-01 1.1235787476262932e-02
    -4.0677712066840799e-01 1.1235787476262932e-02
    -4.0677712066840799e-01 1.1447205408367103e-02
    -3.9641248358604592e-01 1.1447205408367103e-02
    -3.9641248358604592e-01 1.1921081691824495e-02
    -3.7529331252040077e-01 1.1921081691824495e-02
    -3.7529331252040077e-01 1.1447205408367103e-02
    -3.9641248358604592e-01 1.0522672835293128e-02
    -4.4721359549995793e-01 1.0371544122414799e-02
    -4.5711620391383745e-01 1.0095486239070977e-02
    -4.7673129462279612e-01 1.0095486239070977e-02
    -4.7673129462279612e-01 9.9691547915831836e-03
    -4.8645783103373497e-01 9.7369515502242956e-03
    -5.0578053885887309e-01 9.4327497145561545e-03
    -5.3452248382484868e-01 9.2549098601163275e-03
    -5.5358071941066178e-01 9.4327497145561545e-03
    -5.3452248382484868e-01 1.0371544122414799e-02
    -4.5711620391383745e-01 1. 0.</input_scale>
  <output_scale>
    5.2631578947368418e-01 4.9999999999999994e-01 5.2631578947368418e-01
    4.9999999999999994e-01 5.2631578947368418e-01 4.9999999999999994e-01
    5.2631578947368418e-01 4.9999999999999994e-01 5.2631578947368418e-01
    4.9999999999999994e-01 5.2631578947368418e-01 4.9999999999999994e-01
    5.2631578947368418e-01 4.9999999999999994e-01 5.2631578947368418e-01
    4.9999999999999994e-01 5.2631578947368418e-01 4.9999999999999994e-01</output_scale>
  <inv_output_scale>
    1.8999999999999999e+00 -9.4999999999999996e-01
    1.8999999999999999e+00 -9.4999999999999996e-01
    1.8999999999999999e+00 -9.4999999999999996e-01
    1.8999999999999999e+00 -9.4999999999999996e-01
    1.8999999999999999e+00 -9.4999999999999996e-01
    1.8999999999999999e+00 -9.4999999999999996e-01
    1.8999999999999999e+00 -9.4999999999999996e-01
    1.8999999999999999e+00 -9.4999999999999996e-01
    1.8999999999999999e+00 -9.4999999999999996e-01</inv_output_scale>
  <weights>
    <_>
      -1.0518835342547439e-02 3.2220134846835426e-02
      3.7495990098322995e-02 -9.5038692747729941e-03
      -3.0839923911886110e-02 2.5444611993352545e-02
      1.5401308186194585e-02 -9.4112049404891044e-03
      -5.3746102344333323e-02 7.9628343434336359e-03
      -1.3799582900978437e-02 8.3018946188517795e-03
      -2.5212818753608573e-02 -1.8273938383835363e-02
      2.8526911811525661e-02 6.7515603134068840e-03
      2.3080836276704323e-02 3.0195634900948627e-02
      8.2323294386450509e-03 -2.5706429643368011e-02
      2.0019791912457226e-02 -4.3472289848943586e-03
      2.6852649138463074e-02 -2.7100143861893975e-03
      2.2674351156007688e-02 1.6854123631125338e-02
      6.7783771797406576e-03 -1.6327807954441616e-02
      2.8789475069049143e-02 -3.0957171203021230e-02
      -2.5967974347154876e-03 2.1063192118402029e-02
      3.9494796284791156e-03 -4.7873892152330136e-02
      4.5928207002368373e-03 2.5924386386703318e-03
      -2.0346886279434116e-02 4.5012507278646878e-03
      1.0428160251717309e-02 -7.7748690825657444e-03
      -2.5640538435875007e-02 -8.1559626345142806e-03
      -2.5799200068268160e-02 -2.6282918139138113e-02
      -2.8365464146782572e-02 1.2111852741761426e-02
      -2.2658357251013943e-02 1.2629073140876357e-02
      3.4510010541248748e-02 2.5688410540004501e-02
      1.4285943780104335e-03 -6.9077757781449960e-03
      -1.8307911201755147e-02 1.8586732057166530e-02
      -2.6991814896667035e-02 -6.7953568945899982e-03
      9.8085438290809769e-03 2.0800279051289045e-03
      -4.3206999501658995e-02 1.8746627667361041e-03
      1.1083720479416614e-02 -1.5608129977759313e-02
      5.3128322631156256e-03 2.0457320951916734e-02
      -1.3662301992114118e-02 -1.0295792389575564e-02
      -1.2871943116438848e-02 -2.5328988209888187e-02
      -4.2271384330493905e-02 -1.5615822946004851e-02
      -2.0243355187122870e-03 -1.7425725486687294e-02
      5.8299111221055112e-04 2.4323055710357269e-02
      1.0513472870890991e-02 -2.8383958746543386e-03
      -2.5879968790377669e-02 -3.2113535817785560e-02
      2.9930716609514643e-02 -1.2152799656121001e-03
      1.3111890863785893e-03 1.3137278628634067e-02
      -1.6212322653214054e-02 -5.3236567945832017e-03
      -1.4444226348393570e-02 9.6392706440171262e-03
      -2.4680152399544287e-02 1.0934714460070195e-02
      5.0101656878191823e-03 -1.1278103085328426e-03
      2.0450408071122757e-02 -2.8108522747366887e-02
      -9.3386946239398996e-03 -1.9772623818651813e-02
      2.6531042892023612e-02 5.0374653378604597e-03
      -1.6732872667949043e-02 -2.9730261444518048e-02
      2.9684171809414281e-02 -7.8930835303508053e-03
      -1.4809309542224071e-02 -2.8278747308437765e-02
      -3.5882985934258906e-02 -5.9385134349131804e-03
      -3.7398312101945282e-02 1.3514258281074628e-02
      1.0488333882111360e-02 -3.1196674989831374e-02
      -3.4916996491953650e-02 9.3853354892091661e-03
      5.4559012501511619e-03 -1.1572242413226923e-02
      1.9800753531852035e-02 2.0164231300511256e-02
      -2.4531169660579727e-03 7.3881848068457143e-03
      -1.6650349126231229e-02 8.5707551025526792e-03
      -4.6173290883927853e-02 3.6497738417850824e-03
      -3.5725583070105090e-03 -9.1538374490229349e-03
      -1.4239483784430447e-02 2.3157946738200815e-02
      3.1279731270771388e-03 -3.1418507859307748e-02
      9.6074666820854665e-03 -2.6066702208986183e-02
      -2.4212974922053838e-02 -1.6188478761420023e-02
      2.4341589176228591e-02 -9.1692075174374249e-03
      -1.7831973424363459e-02 -9.9194339620311840e-03
      -8.7938005224757652e-04 -1.0135794932856946e-02
      -1.9866895564895969e-02 2.0773576285340758e-04
      1.1517615496973367e-02 9.2568901577031546e-03
      4.4532089187447575e-02 1.1080849424871201e-03
      3.5537629246975094e-02 -3.7228179634557317e-02
      3.2571702721476435e-02 -7.6626791144747044e-03
      1.6397708272682582e-02 -1.6594088046230325e-02
      2.5138424125662012e-02 -2.7203400111975778e-02
      -1.0834584612950180e-02 -2.6448611440882473e-02
      -2.4921035689887305e-02 -2.5475948304402963e-02
      -3.0706400404735427e-02 1.2515766922677179e-02
      3.6806721543661048e-03 -3.0292815121427220e-02
      -1.8210042020414534e-02 1.1135324524011041e-02
      -7.9684425846210123e-03 8.7885014334169349e-03
      2.6258679654418714e-02 2.2962336612052360e-02
      -1.0965567220331150e-02 8.7044770830239180e-03
      -1.8692591164249001e-02 2.2914764089964176e-02
      -4.3132600444436203e-02 1.0773853342613068e-02
      -9.4668390546233955e-03 5.6412093894615579e-03
      -1.1707298101474480e-02 8.6519978141880918e-03
      -3.3536931154764618e-03 -1.0912327551796093e-02
      -5.6325118665433837e-03 -1.8605245589890081e-02
      -1.5486030957717237e-02 -5.9326621301227251e-03
      -2.4780962747066163e-03 -1.8069361191179988e-02
      -7.8939774648370663e-03 -1.6699553114334981e-02
      8.0269501797023343e-03 -2.1358221576752070e-02
      6.1721708012067895e-03 8.3807417046307658e-03
      3.6396273699201794e-02 -2.0470661859011269e-02
      1.3777850354921130e-02 -1.6897462990350810e-02
      2.4716108164743782e-02 -4.2928833613359134e-02
      2.6354582565069597e-02 -8.8190772770050038e-03
      7.4614299939401033e-03 -4.2382375335036603e-03
      -3.6121837165620334e-03 -9.7437176160725912e-03
      5.4022902952740558e-03 -1.3032005959393710e-03
      2.4440349074796308e-02 -1.9218983532903102e-02
      -1.0213181591102578e-02 -1.8071191019956211e-02
      -1.6105871042170948e-02 2.3095578375065661e-03
      2.2636862501684552e-02 -7.7791237284161518e-03
      -1.2058643340122853e-02 3.5835339862572584e-02
      3.1215237130623155e-03 1.5980152159385870e-02
      -2.2960311508997966e-02 -5.6789284819288108e-03
      5.1386718016914095e-03 -1.2766485216171802e-03
      -7.0940875626061134e-03 2.5006434153232240e-02
      -7.1812317534775023e-03 3.4341929241863424e-03
      1.7648298522462502e-03 -1.5050176405457503e-02
      -1.4748726660114732e-02 2.2035823567595821e-02
      -7.3624832204922663e-03 2.7198950881452955e-02
      -2.6709965573100654e-03 -1.3306791763866264e-03
      -2.9429107061656377e-02 -1.6160346104369110e-02
      5.3108374196861102e-03 2.0774351892052127e-02
      -3.0681681858000031e-02 -2.0533183503794017e-02
      3.7833397998138486e-02 -1.1768988756441773e-02
      6.4270559725618315e-03 -2.1264786502115961e-02
      -1.2687097584030683e-02 6.9491695099485494e-03
      8.7456907719685329e-03 1.0507524701688531e-03
      1.4886058387704378e-02 -7.4200303263195896e-03
      -1.0737880103123753e-03 8.1538889704167413e-04
      -6.8932197848822841e-03 -5.0253296353351381e-03
      2.8162942408919082e-02 -5.5091205602277663e-03
      2.2181789950656804e-02 5.0940134945508522e-03
      -1.2505195201793483e-02 -4.3418590919864792e-03
      9.6641293552358499e-03 -1.1707110087218583e-02
      2.0050153425665396e-02 -2.6680036017662685e-02
      -1.7011514729607415e-02 2.6626038898007780e-02
      -2.2044124946052610e-02 -1.3393087981013407e-02
      7.6752401417392304e-03 6.4689160017698697e-03
      5.1973507501540620e-03 1.9291235447010766e-02
      1.7380888906559540e-02 6.4794972091427845e-03
      1.5856583583339662e-02 2.7668400506230288e-03
      -3.7638411808279767e-03 -3.6240347362277037e-03
      -2.5420422298264868e-03 2.4243665718814448e-03
      2.6444382976031688e-02 8.1836346708133133e-03
      -1.6771202941911416e-02 -1.0883288983241793e-02
      1.7352909061919362e-02 -8.6567021578623574e-03
      7.6140556082628270e-03 -9.0544206087671084e-03
      1.2732115047805286e-03 -1.5410184674574584e-02
      8.7121679023200796e-03 -8.9469645807007912e-03
      1.1832749973683693e-02 3.3138291961866515e-03
      1.0241620682208786e-02 7.4688313407033973e-03
      2.2886454737604315e-02 -1.9261660970466266e-02
      9.0860395616103387e-03 7.4758045006511334e-03
      6.8122489238575728e-03 1.6347027446020426e-02
      -4.4358948339819036e-03 -1.5187158643216684e-02
      9.0958510918882057e-03 3.9730689911630888e-02
      5.7608802894015187e-03 2.2640672048823275e-03
      -5.6190218515742474e-04 1.8205395659941451e-02
      5.9646856430607903e-03 1.2050457662820351e-02
      -5.0800443347566995e-03 -4.5712499882712369e-03
      -7.6597053382949747e-03 -2.1076217846106233e-04
      -1.5196443267566390e-02 -8.1087503621300600e-03
      2.3406150869526753e-02 1.7202381316194438e-02
      2.8104932226574043e-02 1.1529998590697706e-02
      1.0548278720577372e-02 8.9723716358042788e-03
      2.7381141076210543e-02 -3.5235848851473189e-03
      1.1916710945305366e-02 4.4530351843415838e-03
      -1.0355278374514479e-02 -3.3617654035262472e-03
      3.2631711307430998e-02 9.6094282384126730e-03
      1.6631992768817680e-04 7.7474140244557337e-03
      -3.0544831143679337e-03 -2.7369513866834574e-03
      1.9769129759551984e-02 1.2072861022659672e-02
      -2.2463316805545162e-03 -4.6129517468384239e-04
      3.4146561014065588e-03 -1.1023297426266435e-02
      -4.3807737375277638e-03 1.0212168368616192e-02
      -1.7574004431517975e-04 1.2775748497331279e-02
      -6.4264319375254512e-03 -7.6654623930778691e-04
      -8.3325866152156869e-03 6.8798675582465198e-03
      8.6292198989253155e-04 1.7599273458104529e-02
      2.2917131511764380e-04 -1.1186353815646210e-02
      7.1173195998181019e-03 -3.0948439796170819e-04
      -5.4523357486162350e-03 1.4913376898597345e-02
      1.1434253131688660e-02 -1.1013007892305601e-02
      3.4262319937372323e-03 4.3107921326785209e-03
      2.2474778298601686e-02 -1.3170977730778414e-02
      -8.1324233421159083e-03 1.4408527736793665e-03
      -3.9138810935943546e-03 4.4030985738524476e-03
      7.9202860509681289e-04 -5.0931290145223513e-03
      -8.3697465049842809e-03 -1.4363443304845342e-02
      1.8279340415981900e-03 4.1308471410884890e-03
      6.1855650541569763e-03 -6.9044019014925908e-03
      -2.2173943610564796e-03 1.6520337174937092e-02
      -6.0504324438072207e-03 -5.0566988468056162e-03
      -8.0267378983905849e-03 -1.9936322776791051e-02
      1.1688045411706195e-02 2.9705813127225606e-02
      -9.0798004246589754e-03 -5.7577254184635095e-03
      1.4838634187638274e-03 1.5793849255635373e-02
      -3.4835662104330721e-02 -1.8803020912590878e-02
      -5.8335503384121968e-04 -1.2800919779479296e-02
      -5.7135857164512035e-04 -4.0307466470490116e-03
      4.8239380128761488e-03 -9.5572263678872574e-03
      2.0863837207859032e-02 -2.4536474208887368e-03
      2.5504128923919459e-02 -3.7017996179947322e-03
      3.5072634406960600e-03 -1.4569426147985102e-02
      2.0250952050509047e-02 -1.1171881083598114e-02
      -2.1157437946263027e-02 -3.4474822088651088e-03
      -1.3102969639447829e-02 -6.6794060173578475e-03
      1.1720601828893529e-02 1.7617801160202387e-03
      1.2130012904462077e-03 -1.0517560940216854e-02
      -2.6363820352730901e-03 -2.2186661857449733e-02
      -1.6663007192335981e-02 9.5318394349162752e-03
      3.1409858651317815e-03 1.3159730739243529e-02
      4.3118580743843338e-03 -1.3517825954410167e-03
      -1.2243952297357339e-02 1.8887836077005383e-02
      -1.0291969756897097e-02 2.4348603408144505e-03
      -6.6043893387366043e-03 3.0754126691358657e-03
      -9.6426782254317375e-04 5.8573310427414531e-03
      7.9739030308105061e-03 -1.4417263268866406e-02
      -5.9457059149802928e-03 -2.9126680372754629e-03
      -8.3881995858176468e-03 3.9984405209117667e-03
      1.3025932779099520e-02 6.2997491280648941e-03
      -1.0690627444035136e-02 -4.2630778252546941e-03
      -6.5610128342771940e-03 -1.3502817610990382e-02
      1.4040327458851800e-02 2.8029808669239073e-03
      1.6212696658002256e-02 1.1087838378909247e-02
      2.4506579766684082e-03 -7.0380724307195081e-03
      2.7754280679216120e-02 -1.9355446475424049e-02
      -7.8011806490676367e-04 4.1192978352625555e-04
      1.1677306225774490e-02 -1.1421880041233978e-04
      4.1094062439151228e-03 3.4464748156736403e-03
      -2.9522153661727304e-02 -6.1030101233254730e-03
      -1.5934334063771011e-02 -1.2778023618160324e-02
      1.3491335432680539e-02 1.5322321367514000e-02
      -2.7564212339975147e-03 -2.3641750034746919e-03
      7.0248175907452017e-04 -4.8035110956300012e-03
      -2.8252948833875128e-03 1.5049481232858085e-04
      -4.1660418627613568e-04 1.2876194814369524e-02
      7.5017479076902966e-03 6.5137586083020022e-03
      -1.0611336078537377e-03 1.1772618419772425e-02
      -2.4646384276713545e-02 1.8407753377313901e-02
      -1.1533674782489898e-02 1.3528325883984300e-02
      4.2183387225780953e-04 1.0354545989078015e-02
      -1.6794640333091491e-02 -1.9762397624457414e-02
      1.6086397753725383e-02 -6.0902567778348803e-03
      -3.2355898457199291e-03 4.0299258420168045e-03
      4.5631815424967484e-03 3.3414850422859212e-03
      1.3707658367999594e-02 6.8929940311867628e-03
      5.2622509776859717e-03 3.7968895061115501e-03
      -7.0943386468616887e-03 6.1114068896034714e-03
      1.2012026623884427e-03 1.4328212244487952e-02
      -7.2806265848005198e-03 2.4665853252893639e-03
      -1.0857208588292607e-02 5.2035939449499120e-03
      -1.4219708606069100e-02 -3.0858601633010916e-03
      -1.7225774169434183e-03 1.3702929811645718e-02
      -6.8850328019752732e-04 -4.2095320452249577e-03
      -7.4682253781439931e-04 1.8096682967628796e-02
      -3.2748314482970199e-03 3.2842333160430608e-03
      9.5202898939266319e-03 1.1099992215099892e-02
      1.0937622921935434e-02 7.5943300919374896e-03
      1.1799017336205175e-02 3.8002562854822794e-03
      4.7509997415784086e-03 -4.6511711128747087e-03
      -1.5798447881350897e-03 -6.8616230031235811e-03
      1.9802406822643927e-02 8.0699819680047514e-03
      8.4700468756202900e-03 -3.0552374365654528e-03
      5.0027635345739011e-03 -6.7274297405138994e-03
      1.5447388219631771e-02 -1.3387675642115475e-03
      2.7594183621635249e-03 7.8301331043765885e-03
      -7.5619516859056274e-03 -3.6377491052894833e-03
      1.5579430742394628e-02 2.5218850896821022e-03
      -2.8775244063283358e-03 2.2571186346472777e-03
      4.3825549535383788e-03 4.5142678141403339e-03
      6.7500860835412214e-03 6.6631566615452985e-03
      -5.1922004900452484e-03 2.3471327264924496e-03
      -1.4233819239124787e-03 -1.0600046960033976e-02
      -4.8071624685796050e-03 1.1225159093011215e-02
      1.0677836368879041e-02 1.8080372567328747e-02
      5.6515860186887737e-03 1.0946741432698139e-02
      9.7101623548390414e-03 6.6148252867698288e-03
      4.2563806335790830e-03 -5.9778670262076996e-03
      5.1040074197777089e-03 -1.2994517036741612e-02
      -5.7304563542760492e-02 2.7794177945504289e-02
      -3.1835377254171383e-02 -7.9237321472099987e-03
      3.5944683713685269e-02 -2.3504734245649418e-04
      5.7648188640441796e-03 1.1295642646162092e-02
      1.0746886113535928e-02 -1.3316410830534460e-02
      -6.4246895665660722e-04 -2.2654011672866240e-02
      -1.1215120765676406e-02 -2.6330459578084147e-02
      2.4704168522604535e-02 3.2894851693105183e-03
      -1.9518923627112061e-02 4.4604963914103828e-03
      1.7715066377194213e-03 -1.8160760283245671e-02
      -2.8499123769595725e-02 1.3857445100014378e-04
      2.5434948670880198e-03 -6.1467909741579618e-03
      -8.0014846872229362e-03 -3.9814886052793839e-03
      -1.7057562082864667e-03 -1.7877575768567094e-03
      -4.8692130216014011e-03 -3.0344527140601675e-04
      -2.0508453985091622e-03 -3.6543470455990129e-04
      -3.6188162500568732e-03 -1.0463041918944425e-03
      4.3809056495375991e-03 -2.1523673042975629e-03
      -5.2389547413680404e-03 1.8058685624653286e-03
      3.1858697262658765e-03 -1.5682739924441750e-03
      -4.5847603868668148e-03 4.4038489185885916e-03
      -2.3818303144788901e-03 4.2335102438760845e-03
      -2.5684135053568148e-03 -4.7199619586653805e-03
      2.0438404567389034e-04 2.7496588157593098e-03
      -4.0495963091030738e-03 -3.5256691691757077e-03
      -4.9022929729535550e-02 3.8064377872861710e-02
      1.3591373335241569e-02 -6.4638205777116722e-02
      -1.7522512619983922e-02 2.5361792576270210e-02
      -3.2063482477126580e-04 -6.3790468742934807e-03
      -4.5973047365756969e-02 3.3683560257835435e-02
      6.4389298872885616e-03 -4.8686895636324964e-03
      7.5653469055684333e-03 -4.5548850033735868e-03
      7.0581184489978428e-03 1.0070278288087410e-02
      6.3834299980758515e-03 1.0497937419462271e-02
      -1.9284015182951340e-02 -1.8730399670404199e-02
      -1.3381291347410602e-02 -4.5313940251588631e-03
      1.4107662565126673e-02 -4.7500150842676746e-02
      2.4788121622726412e-02 -4.8943701847396935e-03
      2.5186011213704056e-03 3.7204905337021748e-03
      -2.9222317989670049e-04 -1.6000725397872187e-03
      -4.6923083784924961e-03 -1.8877980264643127e-03
      -2.6619538792194445e-03 -3.2164465826253075e-04
      -3.2865731630872409e-03 -3.4784354914024116e-03
      -3.4464833231790787e-03 3.5383972021185847e-04
      4.5626679458200432e-03 4.9167982692591124e-03
      -4.3234084741302151e-03 -3.7258388331868103e-03
      -3.4092792387559554e-03 5.2857063476957665e-04
      -2.5948245055809295e-03 -2.5385842900082106e-03
      -4.6555893249072321e-03 3.8467151077627251e-03
      -2.2902750548985718e-03 -3.4296337510160407e-03
      -4.4745922646715888e-03 1.4042582770688978e-03
      1.4517565523036601e-05 -3.1207712411636668e-03
      3.0506074652667946e-03 4.0660039824434221e-03
      -2.0100125155504930e-04 -6.3468756597810302e-04
      -2.3995739082841132e-03 2.6442360321369558e-03
      -2.5518168523233268e-04 3.2465133725783960e-03
      9.0559314211350259e-06 -2.9596639399966603e-03
      -3.4557703211334327e-03 4.7053456399895723e-03
      -4.4079942100506220e-03 -4.2017018386139339e-03
      4.1544953996937948e-03 2.8500801122930482e-03
      3.5103442641283319e-03 -1.5684489139663163e-03
      3.2376415977890928e-03 2.7736926638403251e-03
      2.7181113860446091e-03 -4.9508609098618157e-03
      4.9059859916054530e-03 -3.6619384457653318e-03
      1.0391294819700216e-03 8.7915542728102269e-04
      2.9790929690044483e-03 -4.8739508270007727e-03
      2.8974708458832893e-03 1.2795050833833380e-03
      3.6308032724994277e-03 -1.2569464257609650e-03
      -4.1418828861395016e-03 -1.4708286700955238e-03
      -4.9071142827752049e-03 -4.0878630574456886e-03
      6.6383147452258565e-04 -2.9344747115852645e-03
      -1.2855516673336800e-04 -1.8022979200568074e-03
      6.5413569818609165e-04 -2.1864531767060119e-03
      2.9842752174624519e-03 -3.2501190721035116e-03
      1.3174078286183467e-03 3.0696704980385557e-03
      3.9834717525992092e-03 3.6025573691417440e-04
      1.4259675621790212e-04 1.2000471533498052e-03
      2.8202509786385264e-04 2.6711555088355417e-04
      -2.3374018184799793e-03 2.7324154404103468e-04
      -2.4170323218577522e-03 2.2520239893790289e-03
      1.8901897343345242e-03 -4.7214709762958022e-03
      8.5557299233768053e-04 -4.8282859859549313e-03
      -1.2672360841336034e-03 -4.4793830852672203e-03
      2.1811320684466330e-03 2.3997176850100296e-03
      3.5151135719587753e-03 -5.0958805735672845e-03
      -4.4725575245102211e-03 -9.7061686483288195e-04
      -3.1405281124637622e-04 4.1310126938723891e-03
      1.8987310425366436e-03 -4.3605813422831737e-03
      -3.6226777495245287e-03 3.0527739041634728e-03
      -3.3422261913514609e-03 -9.6008824540348096e-04
      -2.8280293122681104e-03 5.1361901331086418e-03
      2.2646956128044684e-03 2.5722228289077869e-03
      -4.9990347953401976e-03 -1.2390397192615147e-03
      -2.3393636819845185e-03 1.0062793980515337e-03
      -2.3949957958434944e-03 3.6120152612056743e-04
      3.1372404860303500e-03 2.2581982086834762e-03
      -9.1129826959871472e-04 4.1245135092811587e-03
      -1.7031653799291682e-03 -2.3706405071868336e-03
      -1.7581101258619081e-03 -3.2973261095791818e-03
      -3.5742768407455924e-03 2.6728508196683749e-03
      -4.2980651447345163e-03 -2.5372216172389406e-03
      1.0646144873127207e-03 2.0606590281398102e-03
      1.3395350868938968e-03 6.2868843450852993e-04
      -5.7879314023319038e-04 -3.4460398479580416e-03
      5.3417267491137090e-04 -8.3029980832307942e-04
      -1.5115682344909261e-03 -3.2163706038372823e-04
      -1.0682395720736230e-03 1.5666572396068341e-03
      3.8182654720082861e-03 3.1316986923515537e-03
      -1.5191524189625200e-03 -5.8924658451151978e-04
      3.6739177794624408e-03 -2.6294953435220562e-03
      -4.8310345650885034e-03 -3.6750427064330279e-03
      3.0012022730049963e-03 -6.6075922269841561e-04
      3.5365033189639901e-03 2.2462162436483967e-03
      3.3409312271049057e-03 -3.2354333493982939e-03
      4.6173863213566516e-03 2.7499832029619651e-03
      -2.5655817627412069e-03 4.6907288167413966e-03
      -2.0666316951237951e-03 -6.3544750294141240e-04
      1.3423435752051883e-03 -9.0271551645694525e-04
      -1.4468605286453956e-03 -6.7953542904225159e-04
      4.9782797530558698e-03 3.4282002001053205e-03
      -1.9265496127858896e-03 -3.0269199424709002e-03
      4.4332486736016951e-03 9.2873955759193686e-04
      2.1326104997087592e-03 -4.1644286761544662e-03
      2.4567167541090537e-03 -1.0532449614571126e-04
      5.1218944971782527e-03 -6.3793501741644476e-04
      -8.8393871532364224e-03 -9.8767674579328425e-03
      -1.3563946343149740e-02 9.4188216928260213e-03
      1.4308383717744620e-02 -8.0979785192668245e-03
      9.7873186179757345e-03 2.7572141867654144e-03
      -6.8459024783757203e-05 -1.0643926428650483e-02
      -1.0100913662931638e-02 1.2092613607489970e-02
      7.9388627956823395e-04 -7.7129127998210624e-03
      -2.6569437744931287e-04 -1.3705199136482439e-02
      -1.3473518140798352e-02 -1.7287212739821444e-03
      -1.9805658987457572e-03 -9.8889276642385657e-03
      -7.5332212197469365e-03 -5.9662982923425591e-03
      1.0273683694772006e-03 -9.0902582569137372e-03
      1.2227408822439279e-02 -2.1341015559779429e-02
      -1.2172657611069508e-03 4.4497791824729491e-03
      5.6100418700376610e-02 6.0644663188221563e-03
      -5.7568623209261309e-03 2.6053164172954984e-03
      -1.3629981315383348e-04 4.6418464752362991e-02
      -5.5387484471905196e-02 -2.4662890724564207e-02
      4.6124114582984412e-02 -1.5221405093410634e-02
      2.0110142731557250e-02 6.8907043203982237e-03
      -3.2826094227883948e-02 -2.5447175952884746e-02
      -9.4483771862303816e-04 -5.6577195245441560e-02
      8.9880327698091469e-03 -9.9387468292239257e-03
      9.2426729856590843e-03 3.7346035133103833e-02
      1.3565135170883747e-02 -2.1829500971193863e-02
      -2.6808826114677397e-02 -6.3687072106717616e-03
      3.1953125606736256e-03 4.1730480277698677e-02
      7.1824073186406532e-04 -5.4168571544261721e-03
      2.7529872561104143e-03 -8.8771757259195772e-03
      4.7835288138734541e-02 -4.7679081031437531e-02
      -2.2201195428131947e-02 4.2238448498418020e-02
      -1.0741290952170458e-02 2.1454086031675049e-02
      1.2854215618499844e-02 -3.2591122148536836e-02
      -1.9170806925515455e-02 -7.0670468133729007e-03
      -4.9123121186190645e-02 5.3855631841433769e-04
      -2.2095697356698654e-02 5.4043761785051939e-03
      4.5359232896825544e-02 8.0940639998089720e-03
      -2.2709635190106752e-02 -1.7472904512884696e-03
      -1.2401495232173912e-02 4.9975416403894328e-04
      3.8813056149735654e-03 -1.8106322464470258e-02
      4.1190002024147472e-02 6.5500063946612050e-02
      -4.3409078836318483e-02 -2.7720416790824008e-02
      3.7761430578532075e-02 2.3532073760804812e-02
      -1.7364231891583065e-02 -1.2815115787817733e-02
      -6.4145946541826079e-02 4.5415897201370570e-02
      4.0669542196554312e-03 -6.1257643766326753e-03
      -1.3190010972268388e-05 4.5321556941398604e-02
      -6.0290934933756646e-02 3.4039861007070543e-02
      -2.1181398395097441e-02 -1.2854085400549361e-02
      -2.6060640403271204e-02 4.6103623977938421e-02
      8.7348690165293969e-03 -7.1897149089588811e-03
      -1.5382167273819939e-02 -1.4704685237400641e-02
      5.5481017891564552e-03 1.8213999327467770e-02
      4.1495628433346865e-02 -1.7626745896449796e-02
      -1.8801607054505936e-02 1.7198650991134268e-02
      7.4911941053171461e-03 -3.2278380349084264e-02
      -2.3546486370503911e-02 -5.4342838830746712e-02
      2.8024111826302021e-02 2.8436051882338713e-02
      -4.9545948122428083e-03 2.0922623393529436e-02
      6.0690337723198623e-02 -2.9553953863268125e-02
      1.4133091085858248e-02 -1.2422474874671560e-02
      -3.0115120171167766e-02 -1.5997563390318121e-02
      3.6391176451554423e-02 -1.2336226620019050e-02
      -2.4761484272514669e-03 -3.0581334300630474e-02
      -1.5143418329376487e-02 1.2059929894598989e-02
      2.9781446037094445e-02 2.6264702909582351e-02
      -3.2874858723097269e-02 -3.5552980428811956e-02
      9.7058720167936090e-03 -4.0140577231225693e-03
      -2.9975930929350299e-02 -1.5532793204947554e-03
      -4.0337371864542095e-02 2.8978080188197072e-02
      1.7840379459875873e-02 -1.2242475206854833e-02
      2.6476544504854219e-02 2.5409366620693180e-02
      -2.1741695109953479e-02 -4.1441576403427767e-05
      -6.4650969423654791e-03 -2.0365079808716297e-02
      -2.3861130048259578e-02 3.2570089007149673e-02
      -5.3272576807542691e-03 4.8872573940861884e-02
      1.1795044434765081e-02 -1.4840831769583646e-02
      -1.8882158005368338e-03 7.3923281843171054e-02
      3.6565968194216383e-02 -2.4917818083216317e-02
      -9.0302938291574236e-02 1.7288945633487991e-02
      -2.9053367347206611e-02 -4.0324717341689242e-02
      -3.8233075859015135e-02 -4.8558851435427867e-02
      6.0297170375920153e-02 3.6782189407804686e-02
      3.4516599677658653e-02 8.4307964578396954e-02
      3.2518291988548553e-02 -3.0917068541366298e-02
      3.2228118164241586e-02 1.5705547639006487e-02
      1.2418292877652457e-02 -1.6499942274021534e-03
      4.3800733870778139e-02 8.4149882070213549e-03
      4.6067135747865133e-02 2.7656126940221102e-02
      -7.1652821841454873e-03 -2.6525567021918367e-03
      3.2539978370675800e-02 1.6671099116112174e-02
      -1.4625688676455316e-03 -6.6872927494579709e-02
      3.9609377182650346e-03 -2.9064911662423230e-02
      -1.6287921841433461e-02 -3.4934472772408444e-02
      -5.1341598381390768e-02 2.8489470955311864e-02
      1.6362153204145666e-02 3.0157494656959757e-02
      5.9189019279005911e-02 4.5466178606785236e-02
      -2.4500878298395850e-02 1.9458226852258693e-02
      3.8332271182791484e-03 9.4732233259647702e-03
      -1.4322904408365533e-02 4.3984043733385901e-02
      9.5309233217479392e-03 -1.2703280376743956e-02
      1.6279202842440471e-02 7.4337464707052662e-03
      -3.7521613166905392e-03 -1.1686142553621038e-02
      1.8265679347468065e-02 -8.9203886569978550e-03
      -7.4903645255523579e-03 -4.6668334895892845e-03
      -9.1948000743306644e-03 2.0185945418829506e-02
      -1.4750165055122310e-02 -3.7187907489369849e-02
      -8.0875429938275303e-03 -2.5371132478084615e-02
      -9.3172083966660442e-03 4.5575684061318709e-03
      2.1372758972797803e-02 -2.6544684911455892e-02
      -3.4740928375790467e-03 -6.5636435514614339e-03
      2.7508692683596812e-03 -1.5584278828170929e-02
      3.5481809257947666e-02 1.5015119055543345e-02
      1.0981661603371967e-02 -2.2383630781019895e-04
      1.4309681323199201e-02 5.7198479732557626e-03
      1.6074014045654995e-02 1.8125938772857605e-03
      -1.4234390455788991e-02 -1.4704682987553529e-02
      -1.8658632707356140e-02 -3.1174515346966115e-02
      4.5658021803186930e-03 -3.0595116735056341e-02
      2.5077673014121749e-03 1.9295598724580955e-02
      3.2913703552946490e-02 7.6531208279002529e-03
      4.2789588040698802e-02 5.8270330567564469e-04
      2.0270851676225807e-02 9.4017104792947920e-03
      1.9530152058525967e-02 8.6509581898333385e-03
      1.6435463114725601e-02 -2.2645717295094014e-02
      -7.8468894951270966e-03 -3.0253282000586929e-02
      -6.3700154140362373e-03 3.6526140380026793e-02
      3.0698056490517999e-02 -6.6133158523810050e-03
      6.4198292478263716e-03 -1.8965037188918083e-02
      6.3731226863301099e-02 -4.4120757679099093e-02
      -1.6142507168575886e-02 1.1402822889846629e-02
      -8.0590303303951730e-03 -1.4705950050077495e-02
      1.6878811653087914e-02 1.3958229169014569e-02
      -4.1116641192735295e-02 8.5618788234110513e-03
      8.4484384011705247e-03 3.8821703884839714e-02
      1.9493037700897670e-04 6.4407678089696968e-03
      -5.1628676969081631e-04 9.8832428627041828e-03
      -3.2297553974479677e-02 -1.8514222265832121e-02
      -6.6606566614552058e-03 1.3608971384274269e-03
      1.3223512393692991e-02 2.3862934608585597e-02
      4.8590467954806342e-03 1.2082300032002034e-02
      -5.3910817083443197e-03 6.1823830969321522e-02
      -8.8865966083432127e-03 1.6093689779928512e-02
      -1.0754783633031641e-02 4.3081758254827369e-03
      -4.9449460004304585e-02 2.8045980444458697e-02
      -9.4420250806133801e-04 -1.6099487793111017e-02
      -3.6362935279124056e-02 4.0213482412675042e-02
      3.1367542061157177e-03 2.9461579117612108e-03
      -8.9581534272875785e-03 -5.6624572317094911e-03
      -1.2667847060728961e-02 -1.2538042056974326e-02
      -1.1516858190211896e-02 1.5390488260287393e-02
      1.8402253901768834e-02 -1.9162821351820781e-02
      5.9120281920805587e-03 -1.3310007636853015e-02
      -1.9697936161086220e-02 2.5270027939594684e-02
      3.3386883496464903e-02 -5.8792605279038594e-03
      6.9050998384139447e-03 6.4241809232670729e-03
      8.6332010293594889e-03 -5.3049160939640369e-03
      -9.3744764976739451e-03 -1.9885163419289089e-03
      1.7568805592503706e-02 -3.0198158991126389e-02
      1.9908306072143674e-02 8.5399111923139606e-03
      -1.4969635970919127e-02 6.0079351859210978e-03
      1.7800995300649683e-03 -9.9730904903335763e-03
      -1.7137525823553039e-02 -3.0858222282242154e-02
      -8.0151375719512523e-03 -8.0171328924119357e-03
      -8.0038833726329660e-03 -1.7174685295786546e-03
      -4.5944442524938492e-03 6.5461251249734399e-04
      -3.5223699903978614e-03 8.2068378813239043e-03
      6.5751832668180070e-03 1.3275822987648320e-02
      1.1050723054461160e-02 2.9789397733636414e-02
      4.5817274702951314e-04 -9.2347018377023633e-05
      -3.7689219354339366e-02 -2.2735897035934437e-02
      -2.8530911869741597e-02 -3.4356946902712439e-02
      -2.9024619226315510e-02 -2.1982826954309320e-02
      4.9210369009538115e-04 3.0190093197829976e-02
      -1.4854784093190821e-02 1.4631971914896121e-02
      -4.4161985474040592e-02 -2.2917465875408004e-02
      -4.4541181471934093e-03 4.1091520336598176e-03
      6.1965922263597832e-03 2.8940111595935229e-02
      2.4567237973427004e-02 -4.2497398429977781e-02
      2.7705680162159928e-02 -2.3917042167452680e-02
      -1.0168048335950744e-02 1.0426147531987215e-02
      1.6027925358151441e-02 -1.3139979985382248e-02
      3.7915069695704351e-02 5.1718134622766441e-05
      -2.1327880551478055e-02 1.4725883236818340e-02
      -2.2380861506122441e-02 8.0134906431757694e-03
      -7.3107953112730587e-03 7.4893797727471562e-03
      1.0925120680835875e-03 -1.0154721588488638e-02
      -3.9787403783404238e-03 -1.2716735344805837e-02
      3.3680860402428457e-03 3.0992833332073896e-03
      -3.1162576457407368e-03 1.3743767208336465e-02
      -6.2573942453896924e-03 5.5852601490947388e-04
      4.8586834545983112e-03 1.5794895816854587e-02
      1.6289407453705940e-02 1.3050330950887845e-02
      -8.3275851324888413e-03 9.4456270329864849e-03
      6.4849661632569808e-03 -2.6205737645307150e-03
      3.3270219573735093e-03 -7.3984374151752335e-03
      -1.4735677286960723e-02 -4.5807660352668433e-03
      -9.4417088048222644e-03 -3.6651228598547927e-03
      1.2866110536540932e-04 5.7528470441403868e-03
      -1.9855386299980401e-02 -1.1299981394723450e-03
      -1.5641486610863960e-02 2.8322180411452343e-02
      -2.6388565788011239e-02 -4.9718133117244621e-02
      3.9440570660344704e-02 -3.8223475551884913e-03
      -2.4641994826923835e-02 2.2924173990584031e-02
      -3.9734370120081582e-02 -1.1110273996252076e-02
      -2.6564369452567776e-02 -3.6408852369777825e-02
      -2.7324436427475025e-02 -8.9125873906260571e-03
      -1.0491709829556854e-02 3.9028142496419962e-02
      1.0894002818620116e-02 4.9692171988013019e-02
      1.8733575092975883e-02 2.8808420108058012e-02
      -1.9020986668532497e-02 1.3985546486127459e-02
      -3.6567597520262209e-02 -3.5722519422042858e-03
      9.1055776798680942e-03 2.9854370839645971e-03
      4.1242422567964706e-03 -5.1498687976100771e-03
      4.4389843366699454e-03 -2.9813994230286252e-03
      -2.8648061360739417e-03 3.9682069414689923e-03
      1.4914058438857507e-03 -2.7436197676220229e-03
      7.0318348764640147e-04 -2.3106928997850282e-03
      1.8604696145683168e-03 2.4511774808154835e-03
      5.1218340400249014e-04 -4.3660288135620260e-03
      -2.9053076531762121e-03 1.8577714258772302e-04
      2.7639845863487414e-03 3.4297089915808670e-03
      -2.1979069093872017e-03 -8.5047983626067585e-04
      4.0983345237854980e-03 3.2721950682036644e-03
      6.6482467013864711e-04 -4.6938541143732408e-03
      -1.9870463619463857e-03 2.2448177174178635e-03
      -4.3449237877199393e-03 6.0546118631689069e-04
      -3.4197072378663010e-03 2.0525820119099108e-03
      4.1155665753498157e-03 -3.8622566514464577e-03
      -2.6513313068270493e-03 -5.7598857733250043e-04
      -1.9817091624209104e-03 3.4584384826037698e-03
      5.3810391264923674e-04 -1.0748905735195376e-03
      4.8715189702162867e-03 -3.1812598331638674e-03
      -1.7684221427728673e-03 4.4884396272562004e-03
      5.3641345673424441e-04 4.7205620600349347e-03
      -3.8174200963840858e-03 -2.6534350410709552e-03
      2.6770422631322149e-03 -4.6198650442412842e-03
      -3.7052867811241470e-03 2.7632581568234889e-03
      4.5593904519004398e-03 2.1382701129722560e-03
      7.2067171137191991e-04 2.2102104775341084e-03
      -4.5709155786934630e-03 -2.6975865834379348e-03
      2.1504587824233250e-03 4.3602081875877509e-03
      2.9443004854192521e-03 5.2065534408044919e-03
      3.2170917247484557e-03 2.6748611034589460e-03
      -2.4432859084227331e-04 3.7052084603041544e-03
      -7.6117445482426493e-04 4.9935013663464783e-03
      -4.2760205068251142e-03 -4.8707264323005744e-03
      3.6169794033886651e-03 -4.3513212893205136e-04
      3.4708063043661545e-04 3.0350020401097651e-03
      6.0322689482361061e-04 2.0644408929277954e-03
      -8.6974083028802630e-04 -3.2711915423801335e-03
      -4.1203145444304139e-03 3.0272574118710999e-03
      -4.6412293215353229e-03 2.0724769425315274e-03
      -1.9527217209360705e-03 1.6774622165879463e-05
      3.8353023395484879e-03 1.1985574241020875e-03
      -5.1566655274037513e-03 3.2024546633716011e-04
      -2.0716395771131421e-04 -2.0011304907911629e-04
      -1.8513507232674881e-03 -2.2075788475094172e-03
      -1.4055604797807199e-03 3.2190534452339334e-03
      4.1955101190323781e-03 -1.1123047822565585e-03
      4.5129100330113091e-03 -2.8812920144277994e-03
      -3.6488621260995454e-03 4.4262420057434564e-03
      -4.9384724680922145e-03 1.9329438343095981e-03
      1.1531456417215190e-03 1.7914243778922739e-03
      -4.3435233252820494e-04 -3.7312199867065615e-03
      -1.6018034950923403e-03 1.1571766210830387e-03
      4.1350485305118876e-03 1.5918473301121769e-03
      -5.1037402943730271e-04 4.0508288407612326e-03
      -4.7182494109351283e-04 -2.1104857897875202e-03
      -3.0393597559031978e-03 1.5023138570682271e-03
      8.2834425949879242e-04 1.2970367760489847e-03
      -1.4918949577636975e-03 4.5752697119850311e-04
      -2.3145114602485624e-03 1.9168185503859224e-03
      -3.0997149613297190e-05 2.7193182747263802e-03
      1.7003950060861873e-03 1.5598279408152974e-04
      1.1597363615884825e-02 1.4518618429785796e-02
      8.4237650216535970e-03 -2.4636557898099203e-02
      -1.6361339450814517e-02 2.1170687676647142e-02
      1.1823543271152597e-02 -1.5743075767927588e-02
      -2.9125144014307880e-02 1.9231901044534629e-02
      -7.4260340663505880e-03 -9.2461154968137161e-03
      -1.4783165312096988e-02 -9.3522211217252939e-03
      1.5719999295460918e-02 3.0104884285694775e-02
      1.7547073581180666e-02 2.8151065766304051e-02
      6.4687685417343004e-03 -1.2849486299642526e-03
      1.5181791659476524e-02 -5.6578001139736553e-03
      -1.1887303892382482e-02 -1.8213889812172344e-02
      8.2601586226959678e-03 -3.3042089449583152e-02
      2.1340749647155649e-03 -1.0324302531245418e-02
      -1.6303714949918124e-02 -2.5938734188000835e-02
      3.6110182252973709e-02 2.6500894184727033e-02
      -3.1507510161532422e-02 -7.1404442763053189e-02
      2.0003323370370224e-02 -1.4810996463950741e-02
      1.9587236049490930e-02 2.6227930529161806e-03
      -1.1771297690587686e-02 1.7616682376303202e-02
      -1.7698740104666565e-02 -1.7451058479923853e-02
      3.3544378416135917e-02 -3.7445109700520167e-02
      -7.0369742275001618e-02 -7.0040420703409711e-03
      -5.3294815426878155e-04 3.2222121610418479e-02
      -3.2125698613184261e-02 6.3697515974504945e-02
      -1.7973093920529530e-02 9.6735145885117734e-03
      -1.5518138067116619e-02 -9.6552356452233087e-03
      -8.3872924862463585e-03 3.0343863254106526e-02
      2.0826423053693276e-02 -2.0919003144631548e-02
      -5.8874695202970458e-02 1.5648435931970787e-02
      -1.0232665767870628e-02 3.1676235103196729e-03
      -3.7093064051923435e-03 1.1100877469953350e-03
      1.1210859359688352e-02 -3.5073806368561026e-03
      -6.4967261604043161e-03 3.3602649349603442e-02
      -3.3564797688556851e-02 -3.5341878639758684e-02
      5.2195427806656950e-03 7.4255885592237458e-03
      3.0057037537037867e-02 -5.8349500003307079e-03
      2.9488882531703040e-02 -4.5527979816519640e-02
      9.4341014324937503e-04 5.1504666888341375e-03
      2.4525243954698801e-02 1.5820000237965863e-02
      3.1515092121450268e-02 5.7989050371285475e-02
      -4.4843939805255285e-02 -1.1167451330622871e-02
      7.6337536637508452e-03 -5.2186810189943722e-03
      -1.3266798293642247e-03 -1.0301517357366775e-02
      -7.4632197901431205e-02 6.0256327297095721e-02
      -2.1107025181569258e-02 -2.9416755682851615e-02
      9.2851836487688032e-03 2.8772172730868715e-02
      -5.0849161593899413e-02 1.0533354825260369e-02
      -1.0805413279872413e-02 1.7162999309075035e-02
      -2.5153297780564986e-02 4.6213877796330259e-02
      -5.9031126116293412e-03 -9.9530287209096749e-03
      2.9824748101161112e-02 2.9939489637146169e-02
      2.8367531043974850e-04 1.1489458526307603e-02
      3.7467372299152014e-02 -3.0414293932688529e-02
      4.2748448642768319e-02 -1.7721000845279392e-02
      -6.5382551186532736e-03 2.5401762507229936e-02
      -8.9802315650294069e-03 -6.4483920293695290e-02
      3.8538190087799351e-02 -1.5715887255548365e-02
      -8.5224238696006045e-03 -1.4952133988909149e-04
      3.3071778927464046e-02 -2.4053857412905170e-02
      1.8270033243495683e-02 -1.7834569724518572e-02
      1.1368013592709194e-02 -1.3595538118629166e-02
      1.7479859762840451e-02 4.0971483588161887e-03
      -2.1106271139559825e-02 2.4371227168571659e-02
      5.4099555974296942e-02 1.0258652474496142e-02
      -1.8190381042896633e-02 2.2797967044806657e-02
      -1.6286864283894278e-02 8.1447444679894301e-02
      -4.9066920336105387e-02 -1.2584839029665765e-02
      5.4949045830851286e-02 -3.1883954555561736e-03
      -3.3117956139800973e-02 8.9001405276819441e-03
      -4.0156754797867608e-02 -3.2626654192439895e-02
      -2.7243895865916613e-02 3.9379122481711026e-03
      -2.3328044430884595e-03 1.1107703859736090e-02
      -1.5221014900686405e-02 1.7396691978388865e-02
      -8.1533789680081088e-03 -5.1767161743186130e-03
      -5.0104956227315809e-03 1.3768201595069510e-02
      2.1411805562381515e-02 8.1099778281266738e-04
      -2.1087026972665709e-03 -2.1444083338059673e-02
      -5.8833992510857660e-03 3.0124028514308286e-03
      5.5729519712870199e-02 6.1248835753955038e-04
      1.9750865938666911e-03 3.4647116030690449e-02
      1.9219902078711763e-02 -1.8291993941122360e-02
      -1.5126618449468009e-02 -2.4126602228255835e-02
      -1.2266539878998348e-02 -2.2646552455415209e-02
      1.0354144026230833e-02 -2.1319219219809739e-03
      -3.3182888118469460e-03 -4.6654268277217100e-03
      8.7376657303220896e-03 -2.8997901496547789e-02
      -1.3240284699406741e-02 -1.7408301489413518e-02
      -3.4450476787336397e-03 8.4840689467034786e-03
      1.2427126799241369e-02 3.2781742920290714e-02
      -2.8833289311973188e-02 -1.5026440338642292e-02
      -4.5435059238946715e-03 9.4677932462253589e-02
      -3.1996362748512197e-02 1.8064801348254477e-03
      1.4149539864676729e-02 1.5133257319302462e-02
      -3.4015259719976605e-02 3.2488591602360670e-04
      1.4629867492928647e-02 -1.7293656513532991e-02
      -2.2180540177968854e-02 2.9210352545054961e-02
      5.8280050295185820e-02 -1.7420034118101387e-02
      1.6325336314830810e-02 -2.7533353209808285e-02
      -1.2219743152855973e-02 -4.8309813071581859e-02
      -2.4331620122768179e-02 3.4029429798956763e-03
      -1.9720611954556746e-04 2.7726239501995806e-03
      1.7038120745905244e-02 8.7219538046440816e-03
      1.4892270511533306e-02 -1.4314949288878182e-02
      3.6578634199922362e-02 -4.5488221316722435e-03
      -2.0924096565142262e-03 4.8233398171571261e-03
      8.2266136451509785e-03 -4.3381436098278603e-02
      2.1729710589452618e-02 7.6355812254287709e-03
      -6.0567331805956937e-03 1.9360127293418974e-03
      1.6459238047288861e-02 1.0916666755457553e-02
      1.6600073305412960e-03 1.4606954664108048e-02
      -6.2668425826335750e-03 -1.2114858739491337e-02
      -1.8007285591192825e-02 -5.0447469938056766e-02
      3.8805282588032938e-02 -1.2659573525591657e-02
      6.8966932075721181e-03 5.3653745497693646e-03
      7.0248551177437002e-02 4.3092323139486986e-02
      -2.4690275739731433e-02 -2.7490056791328248e-02
      7.2708529657710833e-03 -1.9744011751689325e-03
      -2.5558386843560151e-02 -1.9228249231431488e-02
      -3.9537050765751057e-02 7.0542264481285630e-02
      3.5780560087672358e-02 7.0848690406382911e-03
      4.2044898133129519e-02 -1.6255683277820263e-02
      -1.3235825604562743e-02 3.0661523824565443e-02
      1.5439782970060956e-02 2.6658037294421701e-02
      1.0539391949091014e-02 -7.4430013585061131e-03
      2.4748220759552717e-02 4.4473093499876402e-02
      -1.0570190312975489e-02 -2.9641808148589532e-02
      5.8156894581359918e-04 1.8802454806936365e-02
      -1.2882635355108462e-02 -1.5760572912890060e-03
      -7.7061586424845452e-02 2.1893935860996376e-03
      -5.3236166451015636e-02 -2.4228950135952800e-02
      -4.1535520482848504e-02 -6.1238825363695831e-03
      1.2308100223545355e-02 5.0752560924553804e-02
      3.8229141236847904e-02 9.9015851170147259e-02
      2.9837274791050365e-02 2.5349713977671117e-02
      1.4320773669990015e-02 1.6652474864766297e-02
      -9.6872386747679923e-03 3.8664677230011253e-03
      1.2802879187947267e-02 3.4368331075662180e-02
      -7.0361541301923762e-03 6.3148874610224354e-03
      1.7805323579106514e-02 -1.4897400982446071e-02
      2.4467512294553337e-02 5.8445894118834746e-02
      -3.6077503764642575e-02 -3.6816861772449368e-02
      2.0199262451150342e-03 -9.1265293665110155e-03
      -1.7656121632185508e-03 -2.0355255838242083e-02
      -4.4543958381745748e-02 3.3269857775134581e-02
      1.4699975194053748e-03 1.2748007488044015e-02
      2.0508275271775206e-02 3.6721826243567429e-02
      -3.6018355768280913e-02 3.9201467397121881e-02
      -1.2249815388706758e-02 -4.0187741269398832e-03
      9.9697454409359287e-03 4.3718376168644671e-02
      4.3519534842126192e-03 -4.9466029828781387e-03
      2.7293481243991545e-03 -2.1114330436323558e-03
      -2.7216811517708156e-03 -3.9036746396387966e-03
      -3.0595299079235519e-03 -3.7078523168188114e-03
      -5.1013639657324465e-03 1.6935651665844157e-03
      -1.9719232555862744e-03 3.4376525039400544e-03
      3.8746738628529552e-03 1.5812661633935344e-03
      -2.9795772325613436e-03 -4.0037766096058490e-03
      3.5198873874782832e-03 9.9513461550373777e-04
      -1.1464305478382714e-04 4.0933072940249572e-03
      -4.6991325238215828e-04 -8.7377914418511901e-04
      -1.8732247753522728e-03 -2.1450825806524510e-03
      -4.9309267630227261e-03 3.1106852687179435e-03
      1.1327909406366693e-03 -1.4000073877774622e-02
      -3.1486053325301633e-02 -1.4652371580599620e-02
      2.9875478357492241e-02 -3.5318178738412446e-03
      -1.3908207477519493e-02 -3.2142614407814685e-02
      1.7877186828954974e-02 -1.6429249951807133e-02
      3.1136180988094704e-03 -1.4713096674846165e-03
      2.9498576371890052e-02 6.8921524113327781e-03
      2.5682017319212415e-02 1.2151689988563506e-02
      4.4048992303007115e-02 -1.9060847508643411e-02
      2.4200759502352613e-02 1.5418534573884857e-02
      1.1168144576625379e-02 -1.1873628425310282e-02
      1.1896222517300218e-02 -1.1009042491711984e-02
      1.1279907583066070e-02 2.9453928713510075e-02
      1.2864694008619537e-02 -1.0559371984757034e-02
      1.4383241105916444e-02 -7.7143441147169865e-03
      -4.9249494256596773e-03 2.7983235162073163e-02
      1.6007997723181708e-02 1.9605203873028214e-04
      1.0724748320168188e-02 -1.1846828851567114e-02
      -1.0569164792325220e-02 -1.7190991288577488e-02
      5.9934553158702553e-03 6.9886457078720335e-03
      3.2953191738778843e-02 -3.2685074795277637e-02
      2.7308693530376883e-02 -7.1791745761664799e-03
      1.6698419279482828e-02 7.7810604758340519e-04
      1.5615705357704922e-03 -8.3894397499186014e-03
      -6.6423826827146796e-03 1.7589676828322114e-02
      -1.8639794333129435e-02 9.3302569073391815e-03
      1.3451963663658128e-02 1.2400645090409397e-02
      -1.6638011916867611e-02 2.3876170398692949e-02
      1.0143253419359545e-03 3.8378359104680800e-02
      7.7043932281809701e-03 2.8809314854780374e-02
      -1.2717095770430616e-02 1.4752402413967369e-02
      -3.8690021996211528e-02 9.0606012610542595e-03
      -2.6676706081114124e-02 -1.9399482288859652e-03
      -6.1154017780656746e-02 4.3392277656587777e-02
      -1.8911466405965600e-02 2.3122177915539839e-02
      -1.7528079514311255e-02 -1.5052371769785841e-02
      -6.0423981586774497e-03 2.2167612550404888e-02
      -1.4494310870720103e-02 2.9755340136876614e-03
      -3.2671103185341948e-03 -5.5807964086990658e-04
      -2.4489990027077888e-02 1.5194541741217611e-02
      -2.2743667700091006e-03 -1.1735879051780782e-02
      -1.7675466369156598e-02 1.9280182435802268e-03
      -5.2237676338838194e-03 3.1111328308123968e-02
      1.1452953432377563e-02 3.1437764671618865e-02
      -1.4978092607832794e-03 -2.3183060198556933e-02
      6.2580013046749008e-03 4.3050155976176833e-03
      -5.6938475315138008e-02 -1.9294616305580214e-02
      -2.0618511640618079e-03 4.0090656361977534e-03
      3.2220053765167261e-02 6.7093083749812242e-04
      1.0219568798344358e-02 -1.3120445040564107e-02
      -1.2659739777448541e-02 -1.4524883281019254e-02
      7.6354958947765826e-03 -3.3785722452388482e-03
      -7.3689095826610825e-03 -1.6283752359233907e-03
      -1.0131256676691519e-02 3.0548051006039793e-02
      -1.3390554923844370e-02 8.2640353483703979e-03
      6.1880005200858773e-04 9.6047992858219987e-03
      -2.4948344565293092e-03 -1.3883244647864728e-03
      4.8210837475725172e-03 -1.4259595416900655e-02
      -2.5734000966988360e-03 -1.2799551583669628e-02
      -3.7349258686232732e-03 -8.0558570198242026e-03
      -5.8261331980253451e-03 -1.1334563070825338e-02
      1.2438514822525878e-02 -2.2181606241743939e-03
      -3.3234226540087633e-02 -1.9004553553826454e-02
      2.4874892236851770e-03 -2.8671635029582462e-02
      -3.2415048559451981e-03 2.7811061981692791e-02
      -2.4277339497326762e-03 -3.8753256531358964e-02
      -2.0111346154991959e-02 1.9306008425630898e-02
      -1.1048101185287432e-02 2.6867714185997076e-02
      2.1263179679640087e-02 -1.3781725936856570e-03
      3.0803770269570091e-03 -7.2084867604018943e-03
      -1.6071541414531050e-02 1.9367737457729226e-02
      -1.9465044806288606e-02 -5.2302632141091833e-03
      -1.3729389370016058e-02 -6.4698051496723053e-03
      2.6387157213245893e-03 -2.9972292311540517e-02
      1.7545290987770794e-02 9.0349653255378665e-03
      -3.2427772772069603e-02 -3.7923918548305173e-02
      3.9932525355984450e-03 -3.3268232106555225e-02
      -6.0145632515607294e-03 -1.2046045201228631e-02
      -5.2699078242517119e-03 1.8946389706981821e-03
      -2.0253945056421765e-02 -1.3303755835688769e-02
      -5.9692901174755600e-03 2.5691326296070731e-03
      1.1172451255865681e-03 -9.7513146640631990e-03
      8.1441065272222692e-03 7.7574022493768048e-03
      8.1618892183706049e-03 -3.9872702213371754e-03
      9.9688959813196473e-03 -6.0021515641929171e-03
      -1.2804706455320761e-02 -1.3028917952712974e-02
      5.2176250664938764e-02 -6.9541796062775945e-03
      2.3685521757824110e-02 -1.2663958215939648e-02
      -1.6879086228058771e-02 3.9891394412321611e-03
      -3.0891360928247513e-02 1.0166928595065752e-02
      -1.4023778869876028e-02 1.2933327016879429e-03
      -7.0608337819848494e-04 -1.2071207335068499e-02
      -3.3232522824889828e-03 -1.4184296955366315e-02
      -2.0210669599560081e-03 4.5461567852261497e-03
      5.5667750077673089e-03 2.7743846345874110e-02
      4.7701780060784321e-02 2.4495469640636557e-03
      2.8020569639815329e-03 1.6846857418385798e-02
      1.5090586833915388e-02 -7.0877516631238082e-03
      2.9837198845441512e-03 6.3292967944584444e-02
      -2.7691302345729862e-02 6.0229437179177690e-02
      6.7859956214399450e-03 -1.4125839398696639e-03
      -6.2538410690388783e-03 -4.9139955952214501e-02
      2.0849343473466311e-02 3.8953392030448763e-03
      1.1083403899126595e-02 1.5003995527190448e-02
      1.1521073461005327e-02 1.7999673354474260e-02
      -1.7808925087730392e-02 -3.5521446765439777e-03
      -1.2374945224298275e-03 1.3508081909424598e-02
      4.2347407320945080e-02 7.1621776110899482e-02
      -1.9599932161385312e-02 4.0781469058509323e-02
      1.2398126082705139e-02 3.7319657928546433e-02
      -2.1051357349655544e-02 -1.0467985025936868e-02
      5.1989085390812158e-02 -3.4042661671034972e-02
      6.0752569085829634e-02 1.9697756561849630e-02
      9.0526233454071587e-03 -2.0260533709450728e-02
      -6.2732375558426395e-02 2.2893604111208537e-02
      -4.1128620843833806e-03 9.5613446493299191e-03
      3.1409429998168295e-04 2.3339239130783167e-02
      1.8120953744910861e-02 -1.4903985613991859e-02
      -1.4007578917812156e-03 -1.6673297782661522e-03
      1.0433976222294495e-02 5.2619560452372038e-02
      8.0412980779277568e-02 -1.1206294246437151e-02
      2.4936670048370670e-02 1.4548540170570329e-02
      4.4226852829066028e-02 -1.0204773642970394e-02
      -5.5803930720070604e-03 5.5881415195478512e-02
      -3.6164156273994823e-02 1.3647591376932212e-02
      -4.1566208609944776e-02 -1.8222135583760242e-02
      -2.6415785156873307e-02 -4.6150161909216267e-02
      2.2950538242496595e-02 -1.1987830811114352e-02
      -1.3648833122457522e-02 -2.7384965080046838e-02
      1.1125646733110015e-02 -1.3229211535751736e-02
      -1.1886987821593496e-02 1.0635326017205312e-02
      1.6992981504392390e-02 1.3002787553203273e-04
      4.1715638488370982e-02 2.1537342012911326e-02
      2.5941727597946333e-02 -2.8679562823124623e-02
      2.0340217527509939e-02 8.1992336408781563e-03
      -2.6661064661246763e-03 -1.9175798326107205e-02
      4.0967999881817506e-02 -1.7997853255187254e-02
      3.4902239664907908e-02 -4.6317846366596568e-02
      2.3539259138195441e-02 -4.2836836760603934e-03
      -4.8200354755738473e-02 -3.5815059007196504e-03
      -1.5589151233565732e-02 -3.3621659861114012e-02
      8.3993903099349367e-03 -3.4572194224404607e-02
      -5.4760203089614823e-02 6.1488717802995987e-02
      -5.8156062835029261e-03 4.6379760599765266e-03
      -1.4895314549955255e-02 1.1954693816304689e-02
      -1.0828215761761243e-02 5.5154391211374394e-02
      -6.6112259281751965e-03 2.8511200739385296e-02
      6.3014062921740556e-03 3.3190933457555331e-03
      -2.8935547276917970e-03 2.7604874172625443e-02
      4.4782280948709704e-03 3.1069167885386256e-02
      -2.1772762088852021e-02 -2.4985359782568613e-02
      1.1088606763829658e-02 4.5035823236763851e-03
      -2.1708814907518845e-02 -3.5838226681483371e-02
      -1.2785951016909337e-02 -2.0161636953117287e-02
      -5.4645554629279308e-02 -8.3391445652146443e-02
      2.8976710918542530e-02 -3.2390607000333457e-02
      1.8706179750373302e-02 -3.1644655070635651e-02
      1.3181166997361873e-02 -2.2854344516312793e-02
      8.8166480951661214e-02 -1.0392217997527578e-02
      4.0748322848074593e-02 -1.8569351341141117e-02
      3.5100347546195851e-03 -9.1601024662708273e-03
      3.9825560659325326e-02 1.1465092376924904e-02
      1.8799029237123569e-02 1.0465233788994870e-02
      -1.0593561232489057e-02 9.3021645774642361e-03
      -4.6217542748223771e-03 1.5703204550792564e-03
      -1.4437918584004469e-02 1.7931557764303066e-03
      -3.2847537363353822e-02 -2.7592128145267479e-02
      -5.4879887598444893e-02 2.7605610457627542e-03
      -4.4075667575741641e-02 1.1711658671349615e-02
      7.3345111356278728e-03 2.8130991674593150e-02
      4.1685328938559779e-03 7.1767357676724264e-02
      -2.0789884831561394e-02 1.3436142457135749e-02
      5.6986793433854840e-03 7.4391121059776567e-03
      8.9767716068957989e-03 5.1149986031792626e-02
      -8.4958297369253314e-03 1.5508106023685521e-02
      1.0398494575980584e-02 3.4246544974086982e-02
      6.8386323834756608e-03 -2.3968656590532749e-02
      -3.3307177109060546e-02 -3.5579301405755964e-02
      1.2311365498139335e-02 2.2057700461928571e-02
      -3.8067340453262058e-02 -4.7177526974769894e-02
      5.8482910552623640e-02 -2.0853436528406093e-02
      4.7520740885302797e-03 -3.2255363420496702e-02
      -6.7227961284940093e-03 -1.4287165508305277e-03
      2.6752249935523414e-02 -7.9217261564832175e-03
      1.2409629496194877e-02 -6.7609241731718950e-03
      1.2575387864286031e-03 2.8703193480380727e-02
      1.5592523644723447e-02 -3.9466628797608537e-03
      4.6004871089207013e-02 3.5595899336351683e-02
      7.4480042278033112e-03 1.9032856974794548e-02
      -2.7340911075584728e-02 -3.2681913494410582e-02
      -3.5040472999953338e-02 3.3203793224795268e-02
      -5.8298624003698344e-03 -2.2764372598041215e-02
      -3.8932118308164516e-02 1.9427730243082728e-02
      -3.1041882358075448e-02 4.6454197687291220e-02
      -2.9306173547379979e-02 -6.3627833446211783e-03
      1.4812997567703566e-02 8.8885927503129826e-03
      -4.5064848553226698e-02 1.8971938783325232e-02
      1.5296668346148110e-02 1.0724113036823616e-02
      3.3398448810455013e-02 6.9916733345826113e-02
      -2.0296782694379886e-02 1.3660465299939969e-02
      -7.3952379513902392e-02 -4.1888292627164224e-02
      4.8629446548560586e-02 -5.2288613045714562e-03
      -3.1695638712196203e-02 9.1323938448306628e-03
      -2.5672190334446923e-02 3.7311541245589649e-02
      -3.6673007151177141e-02 -2.1240687519151681e-02
      1.7768517531244189e-02 2.3164159010160664e-02
      6.5714652577234982e-03 -1.5929064003350892e-02
      -4.3730553611662080e-02 -6.0250790944821324e-02
      -2.2619600264389198e-02 -4.4240158249631373e-02
      -1.9497265589643099e-03 -2.1570860764298151e-03
      -1.7891977327150355e-02 -4.4194400112038436e-03
      3.3177567672153421e-02 2.5275459332833466e-02
      -3.7617904866393742e-02 1.7625510407527523e-02
      -5.7587487421267864e-03 1.4058043117137587e-02
      -2.7347544650454123e-02 -3.2021479875735722e-03
      -9.1688446690176510e-03 5.0146576314109717e-03
      2.6217878456739247e-02 4.6301535044037797e-03
      1.2604238166760333e-02 2.2244225788370670e-02
      2.6479024367485976e-02 1.0142052740313851e-02
      6.6243517185457868e-03 -2.6922701413121770e-02
      -1.5939422542494031e-02 -2.3406352021225776e-02
      -5.9124072674407634e-02 -2.7917127574160559e-02
      -1.4705141477768358e-02 1.0383236918873500e-02
      5.1603399115578097e-02 2.1079036927804981e-02
      -1.2113868725313505e-02 -3.6796109541832038e-02
      -4.9448646759879472e-03 -1.4649564397635210e-02
      3.1402886045608640e-02 9.4346127706609259e-03
      -2.5417097373902062e-02 -1.5200902775723404e-02
      2.5871649830656838e-03 5.0179861395668816e-02
      -5.4661688806876718e-02 -1.9679003775276593e-02
      1.5887443129672368e-02 -4.9417073323847248e-04
      -1.4133410424908824e-02 -7.7723396501776503e-04
      -2.2030976018933758e-02 -2.2819346255658856e-02
      -5.0786141641951050e-03 -1.5210434001180426e-02
      2.0271001598219939e-02 -2.9268899406624322e-02
      6.4202717361533260e-04 1.0735362531183831e-02
      2.0182298102728240e-02 -2.3453297952881372e-02
      -4.6815984036492120e-02 -2.6276458947896177e-02
      -1.7124243449096223e-02 3.2223506251600448e-02
      5.0492741722421880e-02 -2.4369535938535757e-02
      9.2669732786609983e-03 -3.5056116051395608e-02
      9.0781004978741767e-02 -4.6057836320202966e-02
      -1.3705139116872780e-02 1.0344840537526847e-02
      1.9302950310473296e-02 -6.1787194465892419e-02
      1.1245911560635927e-02 -1.8307154954998808e-02
      -5.7664208135573235e-02 -4.1746223898413669e-03
      3.2691071872138683e-02 2.4474261325530329e-02
      -2.6811502121359979e-02 -1.4229166674303968e-02
      -2.7753174040569754e-02 -2.8199643613132395e-02
      2.0044982377706582e-03 -2.9498257445563641e-02
      -2.6317965397752885e-02 -5.2343263519735034e-02
      2.2224512634462529e-02 3.3411746458612467e-02
      -4.3703744734350534e-02 -1.9845089270101420e-02
      -6.3270078018330140e-03 2.8454975025041355e-02
      -4.4548775652839163e-02 -2.7913629316228497e-02
      1.9217663841137506e-02 1.6357387308711772e-02
      1.2850852152026753e-02 -2.8851304924046910e-02
      -3.5514107890221101e-02 -5.5069733347547535e-02
      8.0918169603745142e-03 -4.5002920512934579e-02
      2.2347167730056954e-02 -4.1627134443705534e-02
      6.1920734357772907e-04 -1.3872041102589787e-02
      -5.9494427324509021e-03 1.5947293521516488e-03
      -3.8871923558045994e-02 -4.8827645866987048e-02
      -4.1370178846931387e-02 -1.0541341818439858e-03
      9.9674697714099893e-03 -3.5366947930884442e-02
      -1.4711511246486220e-02 -1.4173982600098453e-02
      1.0448620631145225e-02 -2.8715447405688179e-02
      -2.1226176216702607e-02 2.2165466842288931e-02
      3.3265004380792704e-02 1.9763073430688546e-02
      -4.2208343196736768e-02 -3.8242922254132006e-02
      -4.8255491556278104e-02 2.4394739916099618e-03
      -2.9606148822763231e-02 -2.7070440760286916e-03
      -4.6160101003211565e-02 -2.7899859171652002e-03
      -1.3984961535416380e-02 -2.2271178417023356e-02
      2.2588694843895817e-02 -2.7020355485697933e-02
      2.1254841397140196e-02 2.9591604060981501e-03
      -6.9389070596409974e-02 -7.4442864738556054e-03
      7.8879129585930994e-03 -3.3439759779491457e-02
      1.9770705919869368e-02 -9.5111320012444302e-03
      3.8129554116432497e-03 -1.9337178627025782e-02
      6.5611329111027374e-03 -1.4306624122154986e-03
      1.5450976499025373e-02 -2.2161429038418966e-02
      4.2889674258059840e-02 2.8308264401062596e-02
      3.8763697609553081e-02 3.5229679737846797e-02
      3.9749429846675462e-02 -1.1208031492394115e-02
      1.6670658047433794e-02 -2.6534377716996516e-02
      -1.5576133976388320e-02 -2.4587808912304502e-02
      -4.7216931523713895e-02 3.1365703017311050e-02
      1.5540112885192713e-02 -8.0922182263798256e-02
      -3.1020165868287066e-02 3.3629773348455433e-02
      -3.1688903122382393e-02 -7.7176368325834060e-04
      -6.6437706042036623e-02 3.6010676101632236e-02
      -1.1018865636956759e-02 2.3537926651058610e-02
      1.0093256083076572e-02 3.3390581688423335e-02
      -2.0507288912372350e-02 2.6089997360754565e-02
      2.8064502044256708e-02 5.2646696941374034e-02
      -3.0964876872330634e-02 8.5469839135785593e-04
      -2.5817378979532013e-02 3.1702407103439294e-02
      1.3569068529347000e-02 -3.2453464536206546e-02
      2.8460152045998357e-03 -5.5017723523318733e-02
      2.4315679175444468e-02 1.1681011272104079e-02
      -7.7860957865471300e-02 -3.3579882917813657e-02
      2.6529706371569355e-02 -3.9804006335734061e-02
      -6.3005271307823036e-03 -6.5835129870016204e-02
      6.0559110557776831e-02 1.6674134110417898e-03
      3.5929564496054112e-02 3.0118538888511660e-02
      4.7457191457178444e-02 -2.8904875522710087e-02
      -5.1944716847185969e-03 4.6714872474528830e-03
      3.1693771508679927e-02 -4.8618123605525289e-02
      -2.9553873884557540e-02 -3.6288900250038246e-02
      2.0070433839386247e-02 3.9302749448343534e-02
      -4.3680611920312820e-02 1.6754933445069380e-02
      -8.3342188596633778e-03 2.2658946003739043e-02
      1.2874284402913706e-02 -1.4316694755216863e-02
      6.8002026082798666e-03 -8.9057827655996073e-03
      -1.2312076308707358e-02 3.0918663859947810e-02
      5.1547711411218397e-03 2.9529402444687432e-03
      -6.1388750679328289e-03 4.2399223528939260e-03
      -3.7991256208888689e-03 -1.0730233773509743e-02
      -3.5522566242881886e-03 -8.9461464619744469e-03
      1.1115595898608100e-02 -1.5204135792472359e-02
      1.9191610896156230e-02 -1.6269251913199400e-02
      -8.5309736675001583e-03 -2.6034671895531379e-03
      1.5914124981191855e-02 -1.2829197539637382e-02
      1.0434643062100155e-02 3.0357891651701826e-02
      -1.4767813643438800e-02 8.3984589986152106e-03
      1.5933142183311651e-02 9.4871261052481386e-03
      -2.8512059040541344e-02 2.6090525411641741e-02
      1.5050401845147316e-03 3.5853677538209359e-02
      9.2511883472872185e-03 3.2949809781179930e-02
      -1.9484730766274019e-02 1.0771309455482415e-02
      -3.7078754224130005e-02 8.6204377825738927e-03
      -1.7567206889171794e-02 -1.8225920140185071e-03
      -5.0371796942637270e-02 5.5274370105427705e-02
      -1.2698374962596112e-02 2.1381275044928094e-02
      -2.5020079384816225e-02 -2.2442226591234463e-02
      -3.4069084303328077e-03 2.0150821042982544e-02
      -1.6689239897882020e-02 8.5124827926817831e-03
      -6.0566609608144308e-03 -2.2932565838118597e-02
      -1.7575959979922166e-02 8.8448251853143704e-03
      -1.3727341802296681e-02 -6.7899909566416124e-03
      -1.2854102461580986e-02 9.0380810581576661e-03
      2.7385158174969464e-03 2.9617876493629559e-02
      1.7623374502448951e-02 3.6135405606897285e-02
      -7.8891871105006388e-03 -1.2243187014340831e-02
      1.4060618298822105e-02 8.4510821118777609e-03
      -4.7601881799345457e-02 -4.6512379833215231e-03
      -7.5136617761794753e-03 8.8507476145021982e-03
      1.2270766939173073e-02 -3.2879482250523545e-03
      -5.1340526126812747e-03 -1.5226848081908790e-02
      1.2427718575797699e-03 -1.0758515260820292e-02
      -7.2319585227664180e-03 -9.9145241950446845e-03
      1.6186112452464241e-03 -1.9909802320345948e-02
      -1.9693374816759060e-03 1.7986719763043283e-02
      -4.1108320135762530e-03 -1.1082772238057323e-02
      1.5508969194524953e-02 -3.6876840374175509e-03
      7.0890648308852009e-03 -4.4164453217464391e-03
      6.2051976514027720e-03 -1.8047497057431191e-03
      1.8082082300662244e-02 -8.5042194782941078e-03
      3.4916511094857960e-03 -1.1656480313466689e-02
      1.1164362430128232e-02 1.1273947842440039e-02
      4.4227064238340280e-03 -1.2709795608036617e-02
      1.4866298243275219e-02 -3.2215209801581039e-02
      2.8897181592667985e-02 -1.9465462695138623e-02
      -5.7636395501115489e-02 1.6038944202326749e-02
      -1.1692954451924868e-02 -1.1015573770513844e-02
      -2.1405478769159119e-03 -8.9056131982139623e-03
      -1.5606965377839805e-02 3.2328367722606173e-02
      -7.2764069680020830e-03 1.9286100435689107e-02
      2.7145095355973581e-03 2.6708635294098421e-02
      3.2944685242605076e-02 3.7167120360933670e-02
      -1.9520785319987848e-02 2.1923087588704589e-02
      2.2843284887235814e-02 1.4090575287187830e-02
      3.6917628325837844e-03 5.1726918233832554e-02
      -3.1961960390082027e-02 -1.0949351204511236e-02
      -4.6319310875188334e-02 -3.6661480399696411e-02
      9.1342850804090360e-03 -1.2407733317672875e-02
      -1.4556820428772313e-02 -4.7122464659165315e-02
      6.3408744985049411e-03 2.2159305873212246e-02
      -3.3008343867641662e-02 -3.1070852859157557e-02
      1.6213803796226080e-02 8.3389377810017627e-03
      2.0134154795404421e-02 -3.1356121675314534e-02
      9.6797102289648308e-03 -1.9721729228140417e-02
      1.8743640868653544e-02 -3.6450078468733209e-02
      2.8571242832517725e-02 -4.2281326240554744e-02
      -1.0618716406806910e-02 1.1609501100428340e-02
      6.4364122922999131e-02 -3.2179204113036805e-02
      -9.9891714138055435e-03 -5.1535431506955713e-02
      -2.5760030875302792e-02 -1.5856978350337953e-04
      -1.2744099714667901e-02 1.2327620558993616e-02
      -3.5208660858097811e-02 -2.1686441858195446e-03
      3.1452649392453881e-02 -2.8008655020271875e-02
      -2.7502472189867094e-02 1.0269273228239520e-02
      3.9449302672067802e-04 3.3120353462832632e-02
      -1.2025755879897805e-02 3.5727506018432664e-02
      1.1470341084777028e-02 1.9126624045482113e-02
      -3.6506488154059928e-02 4.8005358674745112e-02
      -2.7135638039797624e-02 1.1208188019668474e-02
      1.3630031884328997e-03 6.2633130314978719e-02
      -4.8382371136362748e-02 2.9971243198907479e-02
      -6.8025470127030072e-02 -2.2168688876189748e-02
      6.2034443097066629e-03 -2.2486166467404988e-02
      1.5245376239003045e-02 -8.3899494098441142e-03
      -9.8889200445571590e-03 1.4132897708855792e-02
      -4.3370613321539768e-03 -1.3729114972524742e-02
      1.6944619887508132e-03 1.4626096875737411e-02
      2.9508549036320043e-02 -4.0614562902828825e-03
      2.0576836564413673e-02 1.5516115631551464e-02
      5.3799980614926716e-03 -2.4429415483286560e-02
      2.7557501790442796e-02 8.4168300527864056e-03
      -7.4567255733469055e-03 -1.4068340128611216e-02
      6.3293000881408809e-02 -2.8989564697718843e-02
      1.2844247915411069e-02 -6.0156933948500808e-02
      -7.1105838166802184e-03 1.9227303785148637e-04
      -2.3128199809852749e-02 3.2100447084384793e-03
      -5.8107704236890030e-03 -2.9014135186230430e-02
      2.6253518512112824e-02 -4.4963824455447584e-03
      -3.0889834233709845e-03 3.0575972083359344e-03
      2.1216597668136526e-02 1.4990116814647811e-02
      -2.1260098704597458e-03 1.2836363490288655e-02
      -1.4541137831158017e-02 -5.1439336540275863e-03
      -2.0564063762306004e-02 2.3014091598060931e-02
      -2.9294371389462300e-03 -2.2548960972700424e-03
      -2.5289768650046899e-02 2.6658541759031318e-02
      -1.6145953983628621e-02 3.0195557335899178e-02
      8.6601390237522648e-03 5.7362605634321905e-02
      8.5499462413347136e-03 -2.7770209259187269e-02
      -4.0216383427139797e-03 -2.3856313254726900e-02
      1.7117997502331048e-02 4.5560402654667202e-02
      -7.1395333099900727e-03 -5.3075990157504065e-04
      3.2428466342218375e-02 -1.5732819123172165e-02
      -8.7791672595670771e-03 5.3246411780064297e-03
      1.8311037794397574e-02 3.8906034945823190e-02
      -6.1258463889128255e-03 2.8176661822426802e-02
      1.0217217447583336e-02 2.2429035782585479e-02
      -4.9699438846943127e-03 3.1370155860800462e-02
      6.0149597588876971e-04 -3.1320201395362193e-02
      5.1446372301547673e-02 2.3926959840295844e-02
      5.8339771059989554e-02 -2.8742276417731312e-03
      -3.0408411933762682e-02 -1.0188890982566806e-02
      -1.3330329239386944e-02 2.9590163920760321e-02
      1.7881517826302980e-02 -8.1051162659137640e-03
      -9.3420373868366921e-03 3.3348590105726543e-02
      -2.6690491746155485e-02 -1.0625075326725571e-02
      4.6000871271132332e-03 1.6291521388023956e-02
      3.3910464030946857e-02 5.0034712131218437e-03
      2.9139811059647941e-02 1.0222747758629003e-03
      2.6615889492616184e-02 -1.7524150528737410e-03
      2.7354402131344425e-02 3.6729071649013495e-03
      -9.1764669432019413e-03 7.3129738966356328e-02
      3.7044847529992278e-02 1.9486413730083082e-02
      -2.1296758920503780e-02 -3.0424212065426202e-02
      -1.3136602478231108e-02 -2.1232445444437968e-02
      4.1662928132086899e-02 -7.0101940167285201e-02
      1.1130718138849733e-02 -3.6812296059333227e-02
      -5.5847200133736785e-03 -3.6350438191962209e-02
      2.5018636131133809e-02 -1.7711919965530704e-02
      2.4877210315984097e-02 4.6049930640203733e-02
      5.5132018177034711e-02 8.6055852660115988e-03
      1.5469809740987512e-03 2.0333923357782668e-02
      6.6932822593065971e-03 5.3368929820403711e-03
      1.6349597519216795e-02 2.3018864972192254e-02
      9.8430652157905391e-02 4.0961375841644526e-02
      4.3909433335739191e-02 6.6742593545213585e-03
      -3.1835345266433120e-02 -1.7378632569726937e-02
      -1.5184986750758538e-02 4.7608155317572745e-02
      -4.6759695502587656e-02 -2.0192155888337025e-02
      -3.4973961394919172e-02 8.8489408656390774e-03
      -5.1180993044567386e-02 1.9859129656968191e-02
      -1.7829432458115468e-02 1.9204918733909539e-02
      6.1467139925121789e-02 2.5764739206889212e-02
      2.4757563966294596e-02 4.0087599755594117e-03
      4.2750342172703355e-02 1.4737527945084422e-03
      1.8637108340053912e-02 2.4611676446112531e-02
      1.1365528979032131e-02 6.9380679791368333e-02
      2.3599878355039003e-02 5.0011160230730350e-02
      6.2450579926585689e-02 -3.7118637571056927e-02
      -4.4203072185490411e-02 1.3835207761702516e-03
      4.7464533101953414e-02 4.3879538304676814e-02
      -1.6071612177152979e-02 2.1708868634326483e-02
      4.2590633434774650e-02 -6.7559665725089018e-03
      2.4580606089087395e-02 -2.0590178051736890e-02
      -5.4499562785841192e-02 1.7973071218432987e-02
      -7.5957461993404016e-02 -7.8939967332259109e-03
      -3.7851827262732209e-02 2.5219037202181899e-02
      -1.7980227786970893e-02 5.4428694461942047e-02
      1.4506894068433642e-02 -7.6642980845394778e-04
      6.1253225556558620e-02 -4.7896323597981100e-02
      2.4545381103019598e-02 4.8584697058652829e-02
      -3.6509238163350673e-02 -1.7971397858238203e-02
      3.8569984292037111e-02 -4.4264281853943523e-03
      2.0388904128496421e-02 4.9303532507673454e-03
      2.7036322353594273e-02 2.0991173226331976e-02
      1.6198387127367209e-02 7.7947178428517038e-03
      -9.2575947957452345e-03 -4.2567211433339927e-02
      -4.1256438731116021e-03 -6.5007533902764536e-02
      -9.3533336904706964e-03 -4.7456065144744562e-02
      2.4303085948879949e-02 -2.5690523553097814e-02
      2.3981118538768872e-02 1.6789110309829193e-02
      1.7302384980479896e-02 4.2862397423927875e-02
      -4.6853125668829591e-02 -2.0864418661720650e-02
      6.0215612536364566e-02 1.5169630184992757e-02
      -7.0320544626171757e-03 3.0272248765842644e-02
      1.0119031182191161e-03 2.8923422664361317e-02
      -1.3545065130509137e-02 2.1610069249613621e-02
      -1.6627567992461473e-02 5.9987459425106153e-03
      9.7345084538800412e-04 9.5521865983706003e-03
      -1.8502218395299475e-02 -2.9085169435236004e-02
      -4.6014473156373602e-02 -6.7583938826309455e-03
      -5.7861446406396394e-03 2.0125528239382847e-02
      -8.6780331470658958e-03 -6.1949407466504493e-03
      4.3531854926128717e-02 -7.9547575674120165e-03
      1.7100910885403914e-02 -2.9626794406062720e-02
      1.4811949856797776e-02 3.9593866100525864e-02
      -1.7990223579903902e-02 -1.9778045988993244e-04
      2.4733664776196436e-02 -1.3391517506494003e-02
      5.2116662711859704e-02 1.8021043487526422e-02
      4.3114204492808957e-02 1.4440041076785981e-02
      2.7830569517937501e-02 -1.5933195945876473e-03
      9.9647752954880771e-03 -2.7121769016725653e-02
      -1.0544236690537480e-02 -7.6452453298248443e-02
      -3.0725349877787330e-03 -1.7529328027635543e-02
      1.9161600437202515e-02 -1.8098838619047930e-02
      2.1542936113244138e-02 1.5207042834842434e-02
      -1.5745037924485835e-02 1.6366686882368552e-02
      -5.8255836877645968e-02 -2.7099964655280320e-02
      6.8620610673300789e-02 9.2512694530760673e-05
      -2.3429237582630616e-02 3.5126727797095886e-02
      -1.2123368907182708e-02 5.7846937922065293e-02
      6.2361377840324363e-03 7.7386992247923239e-02
      -1.2792325895633684e-02 4.8065717028596106e-02
      1.6606889972966610e-02 -2.1313082315431082e-03
      -5.8927346023458789e-02 -3.6345853189951795e-02
      -1.1850232672633242e-01 -3.9825955469160138e-02
      -2.9073513968503481e-02 2.1486405101882734e-03
      -2.6042104307367888e-02 5.2236827662878087e-03
      2.1463569253403435e-02 -7.4000841452725704e-03
      -2.5667863843126981e-02 1.9778330287800447e-02
      -2.6384177885971808e-02 -2.4893077635919549e-02
      1.7437681151719567e-02 -9.0872997188435733e-04
      -4.3452663165108381e-02 3.7844836911043837e-03
      1.1307622402464067e-02 2.0049334263649656e-02
      9.5590082507944520e-03 -1.7621762708701725e-02
      2.1410221950437059e-02 3.0537855784367438e-02
      -1.0092091482871655e-02 2.1385042590385626e-02
      7.5923529755571239e-03 1.2491831825092638e-02
      -2.6541614341521545e-02 3.5438064958245780e-02
      -2.6714750100311855e-02 1.9577300802754310e-02
      -6.9207526942648345e-03 -3.1512884570625618e-03
      -4.0528562928510224e-02 3.1006170883248998e-02
      7.3038046311980137e-03 1.6042823278476472e-02
      3.0199924646130095e-03 -1.4156129743283510e-04
      -4.9018823059825828e-02 -3.2710019092899154e-02
      3.6525818051011280e-02 5.3760785292413071e-02
      -1.4194372958058530e-02 1.4700483357609855e-02
      2.2891554904362562e-02 1.9451342083812828e-02
      5.8658836174474961e-02 -4.3687138144299739e-02
      -1.7653280814330485e-02 8.7510679659286283e-03
      -3.6781833258893275e-02 -1.9988058211708824e-02
      3.1896130806997734e-02 2.1833133730278821e-03
      4.5859866287108180e-03 -2.9374097268902201e-03
      3.8881681126939709e-03 -3.9319195935203367e-02
      2.4930785672341495e-02 -4.1806385191824502e-02
      1.1669023631504610e-02 4.2231314414145828e-02
      1.0707166985839536e-02 -6.3294258459953165e-02
      -1.9520370491580594e-02 2.4849085742100530e-02
      5.9694904832082313e-02 -5.1917598085857435e-02
      -5.6978558457598544e-03 4.1437435255447713e-02
      1.7295047954958724e-02 4.3793835744408864e-02
      -4.8640305073628272e-02 -5.2007691853812758e-02
      -1.8823739313933854e-02 -4.2779137363991492e-02
      -1.9147889242174403e-02 1.7642820156453441e-02
      -9.5423436298499083e-03 -9.4769684513996890e-03
      -4.8881699752607007e-03 6.8225704119565089e-03
      -9.8631423908911511e-03 2.0311728431474059e-02
      -2.9652336365076071e-02 1.1247173790522424e-02
      -1.2804155718171083e-02 -4.3615100554812621e-04
      -4.8647031521420733e-02 -1.7652399331323076e-02
      -2.7611825381882900e-03 3.3661922857229944e-02
      -2.0966107394276814e-02 -1.6383955047090250e-02
      4.7275038635950443e-02 2.2518390679503182e-02
      -4.0088899378087428e-03 -4.7649496013993362e-02
      -1.9199064407293950e-02 -7.0034641756005879e-03
      -8.6216427219194137e-03 4.9513904835723745e-02
      2.2272135739524575e-02 -6.9087464583534805e-03
      -1.8013088628330710e-02 -3.9718180442825109e-02
      -3.7194911282458949e-02 1.4250043934086310e-02
      7.0321689473467508e-02 -1.2670059065664759e-02
      8.0851757858751760e-02 8.0948800120454866e-03
      7.7375912719425408e-03 -8.6781569905850925e-02
      -2.7882206634473147e-02 2.3797820686094841e-02
      1.0119956911144203e-01 -5.3306486361280409e-02
      -3.7073609468801144e-02 7.4976353783019922e-02
      -5.3508803809720834e-03 -6.3627618807798658e-02
      -4.9408736972597012e-02 -3.8129588490395973e-02
      4.1568901115928382e-03 -2.1779927298588669e-02
      1.2923488320657125e-01 2.1540621129433109e-02
      6.7930204198463455e-03 -3.0049582292259808e-02
      -2.3573298462511352e-02 -5.8343653525270774e-02
      1.7257297215981768e-02 2.2564769658585677e-02
      7.5016202574939165e-03 1.8591329237524629e-02
      -2.0234061687604398e-03 8.3698719388627888e-03
      -6.3328311506400444e-03 -8.2549809012969974e-03
      3.0688871061171339e-03 1.2607028675446538e-02
      -2.4349986400662198e-02 -1.9824586131319762e-02
      4.2312601175923713e-03 -1.8910189206565717e-02
      -2.5187710673538997e-02 3.9641365853073374e-03
      1.3430601950445915e-02 1.5345963417312978e-02
      1.7378636082852679e-02 4.2811489773761140e-02
      2.2413478897471428e-02 1.4354454727813170e-02
      4.2700226254562389e-03 -1.4293791185271458e-02
      -2.3470551983938411e-03 -3.2348883446810892e-03
      1.7681733000822632e-02 2.6670807566772845e-02
      1.7888436721831491e-02 -1.3676778218673783e-02
      1.9390687168359715e-02 -8.9705078104573305e-03
      -7.6688946444271079e-03 2.4884738911794282e-02
      1.5714376975778654e-02 9.8333015662565079e-03
      7.1884095029226582e-03 -2.4301053489027627e-02
      -9.2045520382931650e-03 -2.6732714233070644e-02
      1.2563188745913292e-02 1.4344158549646475e-02
      3.6052569548753854e-02 -2.6353934146499759e-02
      4.3962828971936076e-02 1.2301331586806374e-03
      1.4114220733637097e-02 2.5225556179469186e-03
      -4.8879888162027254e-03 -1.3999812879509356e-02
      -2.9972487967567024e-03 3.4779002231120635e-03
      1.0366411004022646e-02 1.6863732036905953e-02
      1.4595841534722231e-03 1.8493463865773038e-02
      -1.9593884686020580e-02 -3.8637973047222288e-03
      1.4566560290544237e-02 2.4354074889026359e-02
